
\data\
ngram 1=85
ngram 2=2019
ngram 3=12096
ngram 4=38588
ngram 5=65885

\1-grams:
-3.583948	!	-3.11232
-4.024575	$	-3.840186
-4.619935	%	-2.079005
-4.567144	&	-3.045528
-2.329628	'	-2.126138
-3.395612	(	-3.497909
-3.390182	)	-4.047558
-4.549206	*	-3.009023
-6.787119	+	-0.9919273
-2.016534	,	-4.609327
-2.599704	-	-2.216083
-2.04235	.	-4.264169
-4.41434	/	-1.649118
-3.138113	0	-4.009686
-3.072756	1	-3.348438
-3.368786	2	-3.475801
-3.548705	3	-3.838021
-3.625287	4	-3.207249
-3.456028	5	-3.287617
-3.625586	6	-3.04434
-3.759903	7	-3.351082
-3.685163	8	-3.059755
-3.459894	9	-3.246079
-3.489055	:	-4.288514
-3.04171	;	-3.654365
-0.7223491	</s>
-99	<s>	-4.713228
-3.11571	?	-4.660954
-2.73092	A	-2.4899
-2.972539	B	-3.529321
-2.896497	C	-3.12934
-3.176593	D	-2.75032
-3.286742	E	-2.552579
-3.157538	F	-2.882267
-3.25019	G	-3.079659
-2.88335	H	-3.314991
-2.688852	I	-3.195389
-3.308975	J	-3.526823
-3.612903	K	-2.632801
-3.275103	L	-3.164382
-2.914805	M	-2.865696
-3.207698	N	-2.873302
-3.273104	O	-1.595699
-3.074435	P	-2.689226
-4.405236	Q	-2.879718
-3.223416	R	-3.149336
-2.773489	S	-2.839466
-2.59502	T	-3.694696
-3.572409	U	-3.060308
-3.764	V	-2.948339
-3.008885	W	-3.195304
-5.039062	X	-1.254751
-3.580427	Y	-2.959011
-4.700892	Z	-1.684179
-6.486156	[	-1.628886
-6.486156	]	-1.628886
-2.539918	`	-4.154561
-1.21739	a	-4.096413
-1.96589	b	-3.468673
-1.642884	c	-3.569383
-1.521928	d	-3.707663
-1.016416	e	-3.872868
-1.760275	f	-3.961134
-1.83718	g	-3.738285
-1.390672	h	-3.969055
-1.264532	i	-3.921057
-3.110742	j	-3.729721
-2.314716	k	-3.334474
-1.501934	l	-3.776053
-1.73346	m	-3.613963
-1.264929	n	-3.907598
-1.234561	o	-4.125579
-1.829311	p	-3.530722
-3.100438	q	-4.204261
-1.328862	r	-4.068703
-1.309508	s	-4.020116
-1.16051	t	-3.964161
-1.682906	u	-3.591451
-2.122555	v	-4.232685
-1.867459	w	-3.565619
-2.815097	x	-2.808584
-1.883274	y	-3.505974
-3.140751	z	-2.620091
-5.583125	{	-2.255866
-5.583125	}	-2.194698

\2-grams:
-0.0002718589	! </s>
-1.364739	$ .	-0.5379753
-2.800105	$ 0
-0.4978607	$ 1	-1.338624
-0.7626786	$ 2	-0.3662513
-1.006804	$ 3	-0.04253811
-1.139429	$ 4	-0.2721829
-0.9773487	$ 5	-0.3972499
-1.2312	$ 6	-0.4755197
-1.2312	$ 7	-0.1268978
-1.300281	$ 8	-0.1590864
-1.683497	$ 9	-0.2185886
-0.002944381	% </s>
-1.927431	& -	-0.4052313
-2.257535	& 0
-0.007920484	& </s>
-0.5106813	' '	-3.764956
-4.062945	' -	-0.2224076
-4.164947	' .
-4.164947	' 1	-0.403894
-4.062945	' 2	-0.1753256
-3.855565	' 3	-0.07987602
-3.679473	' 4	-0.1828394
-3.281533	' 5	-0.1498775
-3.679473	' 6	-0.6915861
-4.495051	' 7
-4.495051	' 8
-4.495051	' 9
-0.4654689	' </s>
-4.495051	' ?
-3.227176	' A	-0.5387715
-2.901322	' B	-1.538612
-3.503382	' C	-0.2684988
-3.612526	' D	-0.4884592
-4.495051	' E
-4.495051	' G
-4.495051	' H
-4.062945	' I	-0.1249047
-4.062945	' N	-0.03468958
-4.164947	' O
-4.164947	' S	-0.3851838
-4.062945	' T	-0.1932397
-3.855565	' U	-0.2916612
-4.495051	' Y
-3.095897	' a	-0.1342623
-3.758655	' b	-0.1733412
-2.794867	' c	-1.680793
-1.830259	' d	-2.158188
-2.750054	' e	-0.9053974
-4.164947	' f
-4.495051	' g
-4.062945	' h
-3.378443	' i	-0.2459825
-4.495051	' j
-3.758655	' k	-0.06130055
-1.803448	' l	-1.901752
-2.018292	' m	-2.319563
-3.227176	' n	-0.4108069
-4.062945	' o
-4.062945	' p
-1.986333	' r	-2.263116
-0.6871408	' s	-3.050155
-1.133136	' t	-2.124504
-3.758655	' u	-0.6458724
-2.068459	' v	-1.921306
-4.495051	' w
-4.164947	' y
-2.692671	( 1	-0.1078935
-3.429067	( 4
-3.098963	( 6	-0.4144427
-3.429067	( 9
-0.005141738	( </s>
-3.429067	( Q
-3.429067	( T
-2.546543	( a	-0.9030818
-2.437398	( c	-0.999972
-3.429067	( h
-3.429067	( j
-2.442828	) (	-0.4095031
-3.434497	) -
-0.001918959	) </s>
-3.434497	) t
-2.275473	* &
-0.3295611	* *	-1.638922
-1.238046	* 0	-0.1432279
-2.275473	* b
-0.5752883	* y	-0.6112639
-0.7065672	* z	-1.641701
-0.0374265	+ </s>
-2.128262	, 0	-1.739735
-3.566607	, 1	-0.3010693
-3.428304	, 2	-0.3781769
-3.515454	, 3	-0.02835989
-3.279365	, 4	-0.3171297
-3.022539	, 5	-0.7008305
-3.656784	, 6	-0.1216567
-3.491973	, 7	-0.4059922
-3.491973	, 8	-0.2500947
-3.656784	, 9	-0.1637672
-0.004805101	, </s>
-4.808153	, D
-4.808153	, T
-3.894871	- &	-0.4100227
-3.488579	- '	-0.6944649
-0.6516222	- -	-3.173414
-3.79287	- .	-0.2287567
-3.409398	- 0	-0.6179156
-2.060444	- 1	-0.07367468
-2.463273	- 2	-0.1606938
-2.631246	- 3	-0.1398304
-2.845126	- 4	-0.07360676
-2.607765	- 5	-0.7285657
-2.825821	- 6	0.1092746
-2.908795	- 7	-0.2262919
-3.284459	- 8	0.119852
-3.79287	- 9	-0.1365876
-2.983429	- :	-1.206178
-0.635855	- </s>
-2.374635	- A	-0.643485
-2.506308	- B	-0.2165486
-2.158165	- C	-0.1459932
-2.825821	- D	-0.2163168
-2.756185	- E	-0.2456244
-2.631246	- F	0.3608907
-2.772576	- G	-0.1339822
-2.607765	- H	0.8495302
-2.756185	- I	-0.659592
-2.416697	- J	-0.9472319
-3.073606	- K	-0.04692677
-2.789609	- L	-0.0248673
-2.585489	- M	0.07608575
-2.845126	- N	-0.5707132
-3.011458	- O	-0.1706864
-2.463273	- P	-0.5126521
-2.886519	- R	-0.2656886
-2.076959	- S	-0.3915043
-2.643481	- T	1.091822
-3.146156	- U	-0.3705474
-3.409398	- V	0.2228358
-2.607765	- W	-0.9632856
-3.146156	- Y	0.8502213
-3.233306	- Z	-0.1025233
-1.62884	- a	-0.2439692
-1.675666	- b	-1.348434
-1.408674	- c	-1.640715
-1.566373	- d	-1.961463
-1.735762	- e	-1.397382
-1.516376	- f	-2.451768
-1.949503	- g	-1.978764
-1.726651	- h	-1.159923
-1.75298	- i	-1.297432
-2.696187	- j	0.1004026
-2.447186	- k	-1.098382
-1.642242	- l	-1.508045
-1.644724	- m	-1.247544
-2.150122	- n	-1.659846
-1.581168	- o	-0.8518214
-1.590952	- p	-1.285201
-3.011458	- q	0.9144932
-1.677004	- r	-1.905681
-1.325418	- s	-1.980927
-1.395157	- t	-1.966404
-2.126851	- u	-1.515068
-2.3487	- v	0.2331092
-1.794852	- w	-1.661246
-2.023196	- y	-1.806317
-3.79287	- z
-3.422684	. '	-1.222301
-3.966752	. -	-0.09824009
-4.045933	. /	-0.1115765
-3.00454	. 0	-0.131798
-2.918828	. 1	-0.3424997
-3.012509	. 2	-0.3436807
-3.012509	. 3	-0.4568209
-3.346963	. 4	-0.5590372
-2.810405	. 5	-0.5821816
-3.313539	. 6	-0.5690529
-3.364692	. 7	-0.4799665
-3.176701	. 8	-0.3185057
-3.540783	. 9	-0.5083387
-0.0100471	. </s>
-3.10145	. A	-1.645477
-3.665722	. B	-1.10602
-2.858412	. C	-1.881923
-3.313539	. D	-1.433754
-3.966752	. E	-0.7716815
-3.841813	. F	-0.9462227
-4.045933	. G	-0.6928746
-3.899805	. H	-0.8984049
-3.744903	. I	-1.040144
-4.142843	. J	-0.6802354
-3.598775	. K	-1.165796
-3.48963	. L	-1.268894
-3.012509	. M	-1.733019
-2.938723	. N	-1.798616
-4.350224	. O	-0.1927468
-3.63096	. P	-1.139943
-4.045933	. Q	-0.8248397
-3.48963	. R	-1.268557
-2.448238	. S	-2.282771
-4.142843	. T	-0.6979645
-4.142843	. U	-0.6076512
-3.966752	. W	-0.7781997
-3.568812	. Y	-1.197323
-4.350224	. d	-0.1987043
-3.111434	. e	-1.643384
-3.239753	. g	-1.517802
-3.966752	. h	-0.7850175
-2.825825	. m	-1.923796
-3.841813	. p	-0.9536201
-4.78233	. s
-4.78233	. t
-4.78233	. u
-2.410338	/ *
-1.331519	/ 1	-0.7234433
-0.566732	/ 2	-1.095283
-1.527814	/ 3	-0.1978613
-0.910514	/ 4	-1.215831
-2.410338	/ 5
-1.978233	/ 6	-0.1890853
-1.673942	/ 7	-0.6428962
-1.168792	/ 8	-0.483624
-2.410338	/ 9
-0.974972	/ </s>
-1.770852	/ O	-0.6711097
-2.080235	/ a	-0.395878
-1.527814	/ c	-0.05896492
-1.673942	/ d	-0.6861365
-2.410338	/ f
-2.410338	/ g
-1.770852	/ h	-0.1340467
-2.410338	/ i
-1.196821	/ l	-1.097448
-1.594761	/ m	-0.8781787
-1.11764	/ o	-1.195308
-2.410338	/ r
-1.770852	/ s	-0.09264635
-1.978233	/ u	-0.1456727
-2.410338	/ w
-1.870989	0 %	0.3849318
-1.885712	0 '	-1.450004
-3.686567	0 *
-1.287412	0 ,	-1.525412
-1.426424	0 -	-0.4175556
-1.676012	0 .	-1.290144
-2.804042	0 /	-0.5766765
-0.4922882	0 0	-1.071448
-2.14399	0 1	-0.6935253
-2.217776	0 2	-0.2108392
-2.201982	0 3	-0.5365818
-2.069356	0 4	-0.453995
-2.005687	0 5	-0.5591369
-2.217776	0 6	0.02110416
-1.986382	0 7	-0.5841931
-2.201982	0 8	-0.3421861
-2.306717	0 9	-0.9411488
-2.870989	0 :	-0.1958131
-0.3386592	0 </s>
-3.04708	0 A	-0.640591
-2.804042	0 C	-0.5373344
-3.686567	0 F
-3.356462	0 T	-0.4149907
-3.686567	0 Y
-2.34811	0 s	-1.079601
-2.186742	0 t	-1.329394
-2.869399	1 %	1.267172
-3.015527	1 '	0.04049224
-2.635316	1 (	-1.111114
-3.319818	1 )	2.156908
-3.751924	1 *
-1.718862	1 ,	-1.712502
-1.998494	1 -	-0.3714231
-1.869399	1 .	-1.186668
-1.714497	1 /	-0.8184314
-1.006927	1 0	-0.3423491
-1.494389	1 1	-0.6927129
-1.354662	1 2	0.7202089
-1.590646	1 3	-0.3364343
-1.568369	1 4	-0.2956306
-1.299524	1 5	-0.3074846
-1.417832	1 6	0.5003369
-1.442656	1 7	0.2820073
-1.100656	1 8	-0.1115651
-0.5516344	1 9	-1.274831
-2.538406	1 :	-0.4917759
-0.6676122	1 </s>
-3.751924	1 M
-3.751924	1 a
-3.751924	1 b
-2.760255	1 s	-0.938751
-3.319818	1 t	-0.05104354
-2.214347	2 %	0.9398127
-2.096248	2 '	-0.2923017
-3.455894	2 *
-1.555144	2 ,	-0.9553908
-1.459426	2 -	-0.5621639
-1.647615	2 .	-1.231238
-2.816407	2 /	-0.1466834
-0.9313287	2 0	-0.4583064
-1.357769	2 1	-0.7008462
-1.373144	2 2	-0.1722652
-1.440743	2 3	-0.5067552
-1.373144	2 4	-0.6505212
-1.090087	2 5	-0.5085035
-1.537653	2 6	-0.3272941
-1.478948	2 7	-0.2152116
-1.567209	2 8	-0.4225442
-1.626075	2 9	-0.6297559
-1.385043	2 :	-1.54844
-0.4276843	2 </s>
-3.455894	2 C
-3.455894	2 H
-3.125789	2 a	-0.3822955
-2.719497	2 d	-0.4684151
-2.418467	2 n	-0.9722127
-3.455894	2 s
-3.455894	2 t
-2.539578	3 %	1.332621
-2.94587	3 '
-2.636488	3 *	-0.6731115
-1.636488	3 ,	-0.7892822
-1.506154	3 -	-0.334854
-1.548352	3 .	-0.6837716
-2.062457	3 /	-0.5963176
-0.7746549	3 0	-0.544698
-1.38729	3 1	-0.6199043
-1.439207	3 2	-0.1015114
-1.539578	3 3	-0.1886347
-1.419004	3 4	-0.3858255
-1.26542	3 5	-0.4487546
-1.425635	3 6	0.05268443
-1.446156	3 7	-0.4801181
-1.446156	3 8	-0.5288457
-1.647483	3 9	-0.1798697
-2.39345	3 :	-0.3437057
-0.4137714	3 </s>
-3.275974	3 A
-2.94587	3 M
-2.39345	3 d	-0.5338643
-2.284305	3 r	-0.9890875
-2.460397	3 t	-0.6373273
-2.316869	4 %	1.267172
-1.839747	4 '	-1.161983
-2.869289	4 )	1.940492
-1.617899	4 ,	-0.6961299
-1.316869	4 -	-0.4526895
-1.617899	4 .	-0.5739062
-2.767287	4 /	-0.2182451
-0.9018952	4 0	-0.3375747
-1.528498	4 1	-0.319662
-1.471771	4 2	-0.349216
-1.559907	4 3	-0.6071737
-1.471771	4 4	-0.2250001
-1.248153	4 5	-0.6631383
-1.454396	4 6	-0.3482141
-1.508754	4 7	-0.3784787
-1.398539	4 8	-0.4994383
-1.538717	4 9	-0.55823
-2.207724	4 :	-0.1720544
-0.378063	4 </s>
-3.199393	4 C
-1.860937	4 t	-1.174492
-1.812711	5 %	0.6387827
-2.936546	5 '	-0.06919309
-3.368651	5 *
-1.525045	5 ,	-1.50149
-1.381835	5 -	-0.3168178
-1.839863	5 .	-0.5361658
-2.729165	5 /
-0.7797748	5 0	-0.7023287
-1.598831	5 1	-0.6239537
-1.50515	5 2	-0.3170053
-1.615221	5 3	-0.9021138
-1.428135	5 4	-0.5284197
-1.538833	5 5	-0.66292
-1.531884	5 6	-0.6740358
-1.42274	5 7	-0.7181414
-1.210651	5 8	-0.569355
-1.178936	5 9	-0.7306407
-3.038547	5 :
-0.4248897	5 </s>
-3.368651	5 o
-2.009006	5 t	-1.194696
-2.316569	6 %	1.267172
-2.316569	6 '	-0.2492315
-3.199094	6 (
-2.766988	6 )	2.156908
-1.839448	6 ,	-0.7697407
-1.421305	6 -	-0.4407033
-1.79994	6 .	-0.3850983
-3.199094	6 /
-0.6138927	6 0	-0.3236147
-0.8968496	6 1	-0.8658532
-1.310409	6 2	-0.5053042
-1.528199	6 3	-0.1289611
-1.656517	6 4	-0.2593075
-1.413479	6 5	-0.5660516
-1.79994	6 6	-0.3333331
-1.839448	6 7	-0.005508304
-1.730304	6 8	-0.326514
-1.781456	6 9	-0.4975083
-2.559608	6 :	-0.1354888
-0.4849738	6 </s>
-3.199094	6 A
-3.199094	6 a
-1.906395	6 t	-1.131027
-2.32838	7 %	1.332621
-2.734672	7 '
-1.471047	7 ,	-0.759335
-1.346108	7 -	-0.4257107
-1.684927	7 .	-0.6542147
-2.182251	7 /	0.003735825
-0.9167599	7 0	0.08765006
-1.612376	7 1	-0.7184381
-1.495871	7 2	-0.1877998
-1.72632	7 3	-0.06886941
-1.580192	7 4	-0.1100631
-1.129722	7 5	-0.5650822
-1.535988	7 6	-0.4162428
-1.5222	7 7	-0.04477066
-1.42529	7 8	0.06301767
-1.5222	7 9	-0.2064923
-1.851258	7 :	-0.3860338
-0.3741371	7 </s>
-3.064776	7 A
-3.064776	7 b
-3.064776	7 e
-1.612376	7 t	-1.283637
-2.403121	8 %	1.332621
-2.102091	8 '	-0.5387338
-2.707412	8 (	-0.1975348
-3.139517	8 *
-1.624969	8 ,	-0.8162234
-1.468622	8 -	-0.3493139
-1.955963	8 .	-0.3274311
-2.809413	8 /
-1.022909	8 0	0.0745492
-1.250832	8 1	0.2973439
-1.533889	8 2	0.01493609
-1.458638	8 3	-0.2910038
-1.500031	8 4	0.2276611
-1.276016	8 5	-0.04346365
-1.331239	8 6	0.1658716
-1.403121	8 7	0.1996588
-1.361728	8 8	0.2004751
-1.276016	8 9	-0.2131115
-2.500031	8 :	-0.6746989
-0.3877608	8 </s>
-2.809413	8 e	-0.2322602
-1.740363	8 t	-1.232484
-3.034681	9 %	1.755076
-3.364785	9 '
-3.364785	9 )
-3.364785	9 *
-2.048605	9 ,	-0.4665182
-1.864961	9 -	-0.3292454
-2.09691	9 .	-0.3151479
-3.364785	9 /
-1.251812	9 0	0.3885913
-1.30617	9 1	-0.2674474
-1.206785	9 2	-0.8227699
-1.285966	9 3	-0.8728189
-1.09183	9 4	-1.022624
-0.634512	9 5	-1.186493
-0.7166988	9 6	-1.091715
-1.965631	9 7	-0.2284271
-1.895995	9 8	-0.2448833
-1.984936	9 9	-0.5321193
-2.628389	9 :	-0.2672421
-0.7156356	9 </s>
-3.364785	9 N
-3.364785	9 a
-3.364785	9 b
-3.034681	9 e
-1.947148	9 t	-1.250213
-1.696138	: 0	-0.5183879
-2.599228	: 1
-1.997168	: 2	-0.2686625
-1.264774	: 3	-1.222282
-2.184254	: 4	-0.1992995
-2.599228	: 5	-0.02924428
-3.335624	: 6
-0.04413341	: </s>
-7.801931e-05	; </s>
-2.861873	<s> !	0.0002717972
-3.302227	<s> $	0
-3.852718	<s> &	-0.471857
-2.100033	<s> '	-1.32982
-2.678406	<s> (	-1.457435
-2.672912	<s> )	-1.036491
-4.167278	<s> *	-1.628832
-6.102332	<s> +
-1.298984	<s> ,	-2.807447
-2.518116	<s> -	-2.392495
-1.371654	<s> .	-3.052503
-4.703178	<s> /	-1.03338
-4.060584	<s> 0	-1.032684
-2.475068	<s> 1	-0.6976504
-2.893179	<s> 2	0.2273757
-3.144782	<s> 3	-0.274127
-3.344746	<s> 4	-0.6125486
-3.430428	<s> 5	0.01175833
-3.534706	<s> 6	0.764917
-3.549032	<s> 7	0.6480099
-3.679299	<s> 8	0.3131686
-3.831909	<s> 9	0.07437456
-2.810599	<s> :	-2.23941
-2.319362	<s> ;	0
-2.393455	<s> ?	0
-2.023434	<s> A	-0.09221458
-2.264395	<s> B	-0.518328
-2.196614	<s> C	-0.7707722
-2.470955	<s> D	-0.1270394
-2.583463	<s> E	-0.7141337
-2.444561	<s> F	0.01118898
-2.535604	<s> G	-0.3169172
-2.166729	<s> H	-0.6215243
-1.971169	<s> I	-0.7533312
-2.596263	<s> J	-0.0113709
-2.911091	<s> K	0.002788067
-2.564806	<s> L	-0.3401477
-2.203192	<s> M	-0.6283052
-2.501781	<s> N	-0.04707146
-2.573264	<s> O	-0.7781228
-2.364721	<s> P	-0.07486749
-3.710797	<s> Q	-0.6274899
-2.514066	<s> R	-0.6284509
-2.071822	<s> S	-0.259798
-1.876737	<s> T	-0.7855179
-2.864329	<s> U	-0.3423553
-3.074123	<s> V	-0.2024426
-2.293098	<s> W	-0.3279951
-4.392807	<s> X	-0.05060327
-2.867074	<s> Y	-0.4538608
-4.019583	<s> Z	0.4475325
-5.772228	<s> [	1.304956
-5.772228	<s> ]	1.304956
-2.118601	<s> `	-3.645349
-1.039338	<s> a	-1.146941
-1.460723	<s> b	-2.59235
-1.448871	<s> c	-3.650483
-1.640171	<s> d	-4.23318
-1.731821	<s> e	-1.824939
-1.496493	<s> f	-2.58574
-1.920954	<s> g	-2.251643
-1.394836	<s> h	-3.070282
-1.316547	<s> i	-2.943579
-2.662988	<s> j	-1.901663
-2.499412	<s> k	-2.440282
-1.749103	<s> l	-3.580689
-1.55077	<s> m	-3.111077
-1.804143	<s> n	-3.296254
-1.22714	<s> o	-3.123989
-1.525328	<s> p	-2.302267
-2.817915	<s> q	-1.128623
-1.707295	<s> r	-3.273734
-1.287174	<s> s	-3.771912
-0.903301	<s> t	-3.080029
-2.05767	<s> u	-2.671432
-2.317494	<s> v	-0.8858125
-1.319308	<s> w	-3.249103
-4.786152	<s> x	-0.5266084
-2.220615	<s> y	-2.933207
-4.008001	<s> z	-1.408224
-6.102332	<s> {
-3.70897	? '
-9.253105e-05	? </s>
-3.01494	A '	-0.9792628
-3.01494	A -	-0.3603658
-1.753137	A .	0.1922531
-4.09376	A /
-4.09376	A 1
-4.09376	A 4
-4.09376	A 5
-0.90039	A </s>
-2.94239	A A	-0.6427519
-2.977152	A B	-0.4465063
-2.825884	A C	-0.7745911
-2.977152	A D	-1.101307
-2.80106	A E	-0.7075477
-3.102091	A F	-1.085619
-3.211235	A H	-0.4091966
-2.609175	A I	-0.3537128
-4.09376	A K
-3.763655	A L	-0.4126412
-2.64136	A M	-0.9485067
-3.763655	A N
-3.763655	A O	-0.4041463
-2.910205	A P	-1.167938
-3.278182	A R	-0.2119282
-2.825884	A S	-0.4892429
-2.537819	A T	-1.631638
-4.09376	A V
-3.357363	A W	-0.837279
-3.056333	A a	-0.7038278
-1.841489	A b	-0.2721145
-1.54445	A c	-1.182857
-1.496426	A d	-1.589705
-2.609175	A e	-1.350006
-0.9189789	A f	-2.508929
-1.860433	A g	-1.754542
-2.551183	A h	-0.4332198
-2.065107	A i	-1.332751
-1.973548	A j	-1.593701
-3.763655	A k
-1.012578	A l	-1.647419
-1.024925	A m	-1.017374
-0.7810217	A n	-1.822592
-4.09376	A o
-1.761867	A p	-1.604289
-3.357363	A q	1.280972
-1.225103	A r	-1.563589
-1.114822	A s	-1.887505
-1.252194	A t	-1.777673
-1.660134	A u	-1.149005
-2.106943	A v	0.1828623
-2.825884	A w	-0.6338423
-3.278182	A x	-0.4895901
-3.278182	A y	-0.09681819
-3.454273	A z	-0.1595167
-2.434502	B '	-1.386292
-2.492494	B -	-1.076183
-1.742832	B .	0.6161145
-3.85214	B 7
-1.724808	B </s>
-2.258411	B A	-1.06904
-3.036562	B B	-0.190101
-2.814714	B C	-0.6864482
-3.85214	B E
-3.420035	B G	-0.2268999
-2.911624	B I	-0.7227779
-2.53596	B M	-0.7554888
-2.367556	B O	-1.439874
-2.668586	B S	-1.14241
-2.969615	B T	-0.9028668
-3.115744	B W	-0.8356104
-0.9062286	B a	-1.000084
-0.8065394	B e	-1.341996
-1.276895	B i	-0.7890879
-3.85214	B j
-1.391468	B l	-1.533466
-0.9758645	B o	-1.686679
-0.8609539	B r	-2.623165
-0.5546422	B u	-1.413113
-1.40988	B y	-1.030932
-2.686636	C '	-0.4511174
-2.890756	C -	-0.687686
-1.635484	C .	0.3050632
-1.546364	C </s>
-2.714665	C A	-0.8166822
-2.936514	C B	-0.6519464
-3.496077	C C	-0.2169075
-2.635484	C D	-1.266118
-3.598079	C H	-0.4117043
-3.191786	C I	-0.8369478
-3.928183	C J
-3.928183	C L
-2.811575	C O	-0.3348902
-3.598079	C R	-0.4074103
-2.635484	C S	-0.9536645
-2.686636	C T	-0.9660485
-3.598079	C U
-3.928183	C V
-0.7734849	C a	-1.75307
-1.496305	C e	-1.180094
-3.928183	C f
-0.7117793	C h	-1.907617
-1.46751	C i	-1.095074
-1.244353	C l	-2.01499
-3.928183	C m
-0.4255221	C o	-0.9302728
-1.482516	C r	-1.368497
-3.598079	C s
-3.928183	C t
-1.484216	C u	-1.202125
-2.589726	C y	-0.4809813
-2.776813	C z	-0.6975806
-2.331907	D '	-0.7586092
-3.648087	D -
-1.517238	D .	0.5718653
-3.215981	D /	-0.1894703
-3.317983	D 0
-3.648087	D 8
-1.637532	D </s>
-2.531479	D A	-1.134478
-2.248932	D C	-1.462441
-2.434569	D E	-0.6956653
-3.648087	D F
-2.656418	D I	-0.6525195
-3.215981	D L	-0.1978345
-3.648087	D M
-3.648087	D P
-2.91169	D R	-0.2637052
-3.215981	D S	-0.2290083
-3.0086	D T	-0.6988584
-2.832509	D U	-0.5396192
-2.656418	D W	-1.090447
-0.8231997	D a	-0.6150905
-0.5510967	D e	-0.2674943
-3.648087	D h
-0.8671504	D i	-0.2422205
-2.70757	D j	-0.9217763
-3.648087	D n
-0.7970791	D o	-1.23552
-1.043634	D r	-2.316779
-1.064118	D u	-0.4688235
-3.648087	D v
-2.268238	D w	-0.9603089
-2.21272	D y	-1.06831
-3.537937	E ,
-2.459118	E -	-1.061894
-1.51824	E .	0.3402288
-1.694331	E </s>
-2.1203	E A	-0.9419789
-2.801541	E B	-0.2849756
-2.898451	E C	-0.127404
-3.105832	E D
-2.898451	E E	-0.1594907
-3.207833	E G	-0.4126567
-2.546268	E L	-0.5482649
-3.207833	E M	-0.4119114
-3.537937	E P
-2.801541	E Q	-0.8285358
-3.207833	E R	-0.4149534
-2.597421	E S	-0.459568
-3.105832	E T	-0.2277522
-3.537937	E U
-2.898451	E W	-0.4145721
-0.8660336	E a	-2.410337
-2.898451	E b	0.009308219
-1.867042	E c	-0.6764997
-1.166057	E d	-0.7994934
-2.655413	E f	-0.8807812
-2.085538	E g	-0.8101274
-2.72236	E h	-0.4925309
-1.280403	E i	-1.462138
-3.537937	E j
-2.02339	E k	-0.9737826
-1.095677	E l	-0.2444597
-1.376659	E m	-1.517567
-0.8094294	E n	-0.7972221
-2.069147	E p	-0.9211646
-2.178292	E q	1.379572
-1.560992	E r	-0.7278885
-1.637188	E s	-1.016302
-2.069147	E t	-0.5800352
-1.109576	E u	-1.763739
-0.8930559	E v	-0.5250106
-3.207833	E w	-0.3431802
-1.188757	E x	-0.825286
-2.354383	E y	-1.123162
-3.207833	E z	-0.4147938
-3.235036	F -	-0.225634
-1.737621	F .	0.6431301
-1.816802	F </s>
-3.667142	F A
-2.726625	F B	-0.9537099
-3.667142	F C
-2.930745	F D	-0.2711185
-3.337038	F E	-0.4139497
-3.667142	F F
-3.235036	F H	-0.1986359
-3.235036	F I	-0.1985972
-2.851564	F L	-0.5400094
-3.337038	F M	-0.4119114
-3.337038	F N	-0.4093148
-3.667142	F O
-1.060341	F a	-1.226896
-0.9784373	F e	-0.6944235
-3.667142	F f
-0.8108299	F i	-1.403436
-1.404406	F l	-1.874824
-0.5328053	F o	-2.041777
-0.6367202	F r	-2.227024
-1.328685	F u	-0.9269669
-3.667142	F y
-3.57449	G '
-1.855822	G .	0.4031852
-2.236033	G </s>
-3.142384	G A	-0.1403913
-3.244385	G E	-0.4063169
-3.57449	G F
-3.244385	G I	-0.4149783
-3.57449	G M
-2.758912	G N	-0.7842529
-2.42312	G O	-1.144263
-3.57449	G S
-0.9607218	G a	-1.01252
-0.6107207	G e	-1.802081
-2.360972	G h	-0.5940168
-1.279385	G i	-0.7807096
-1.532742	G l	-1.425927
-0.5784993	G o	-1.54075
-0.6761265	G r	-2.557104
-1.279385	G u	-1.363396
-3.57449	G w
-2.495671	G y	-0.5928172
-3.94133	H '
-3.94133	H -
-1.969405	H .	0.3996679
-3.94133	H 6
-2.097723	H </s>
-3.509224	H A	-0.1403913
-3.611226	H B
-3.94133	H C
-3.94133	H I
-3.204933	H R	-0.829865
-3.509224	H S	-0.1950519
-0.8283566	H a	-1.081957
-0.2822081	H e	-1.139286
-0.9613994	H i	-1.399717
-3.611226	H m
-0.7946625	H o	-1.361536
-3.611226	H r	-0.3736182
-1.461424	H u	-1.000009
-3.204933	H w	-0.7325667
-2.523692	H y	-0.5444819
-1.262711	I '	-2.715241
-3.805724	I -	-0.414424
-2.542099	I .	1.03193
-0.383904	I </s>
-3.098401	I A	-0.9830136
-3.195312	I B	-0.9018239
-3.01922	I C	-0.5016294
-3.32025	I D	-0.4669984
-4.135828	I E
-3.805724	I G	-0.4149386
-4.135828	I H
-4.135828	I J
-3.399431	I M	-0.8371162
-3.32025	I N	-0.2067975
-2.797371	I O	-1.425651
-4.135828	I Q
-3.253303	I R	-0.5963377
-3.805724	I S	-0.4114676
-3.399431	I T	-0.2715628
-4.135828	I U
-3.32025	I X	-0.1584709
-3.253303	I b	-0.3452991
-3.144159	I c	-0.8776475
-2.636003	I d	-0.6058389
-3.703722	I e	-0.1387975
-1.233297	I f	-2.64003
-3.057009	I g	-0.3247835
-4.135828	I h
-4.135828	I i
-3.32025	I k	-0.3616603
-2.13936	I l	-1.042012
-2.217588	I m	-1.451072
-0.6697807	I n	-1.57647
-2.92231	I o	-0.6219546
-2.098401	I r	-1.115448
-1.533735	I s	-1.533271
-0.720549	I t	-2.09978
-2.843129	I v	0.5361558
-3.253303	I z	-0.4623439
-3.515704	J '
-1.374474	J .	-0.0114212
-2.63318	J </s>
-3.1856	J A
-3.515704	J E
-3.515704	J N
-3.515704	J S
-3.1856	J Y
-0.6844875	J a	-1.968502
-0.7178553	J e	-1.747125
-1.685886	J i	-0.9525961
-0.5230713	J o	-1.599704
-1.591787	J r	-1.890356
-0.6810103	J u	-1.70767
-2.779672	K '	-0.1295109
-3.211777	K *
-1.630283	K .	0.5661305
-1.852131	K </s>
-2.881673	K A	-0.4149571
-2.396199	K C	-0.4645995
-2.881673	K K
-3.211777	K O
-3.211777	K Q
-3.211777	K S
-3.211777	K V
-0.707483	K a	-0.6936813
-0.5594534	K e	-1.605829
-1.201223	K h	-1.436966
-0.7413813	K i	-1.062592
-1.852131	K l	-0.5151698
-1.426163	K n	-1.234363
-0.978451	K o	-0.6573723
-1.250071	K r	-1.593205
-1.943902	K u	-0.1811673
-2.881673	K w	-0.310112
-2.060407	K y	-0.8955202
-2.432969	L '	-0.213436
-2.667053	L -	-0.4064398
-1.648828	L .	-0.2072645
-2.233397	L </s>
-3.117471	L A	-0.1403913
-2.733999	L D	-0.2034926
-2.91009	L E	-0.6956653
-3.549577	L H
-2.667053	L I	-0.1756705
-3.549577	L M
-3.549577	L N
-3.219473	L O	-0.4122516
-3.219473	L P	-0.4070332
-2.81318	L R	-0.2920313
-2.91009	L S	-0.1595916
-0.594645	L a	-0.9960606
-0.6952467	L e	-0.1719227
-0.7420353	L i	-1.252128
-2.366023	L l	-1.113636
-0.6417466	L o	-1.442809
-2.398207	L t	-1.25227
-1.146663	L u	-0.5197014
-2.007	L y	-0.600861
-3.57977	M '	-0.3152677
-3.173478	M -
-1.775538	M .	0.6132007
-2.12426	M </s>
-3.909874	M A
-3.909874	M C
-3.094296	M E	-0.2043998
-3.909874	M F
-3.909874	M G
-2.918205	M I	-0.2205925
-3.909874	M L
-3.57977	M M
-2.918205	M O	-0.3833615
-3.477769	M P
-3.57977	M R	-0.4074103
-3.57977	M S	-0.4114676
-3.909874	M T
-3.02735	M U	-0.6601272
-3.909874	M V
-0.5202651	M a	-1.090561
-1.676548	M c	-1.236118
-3.173478	M d	-0.8375748
-1.022414	M e	-0.5904189
-3.909874	M f
-0.8500193	M i	-1.439906
-3.909874	M l
-2.831055	M m	-0.6156449
-0.8031496	M o	-2.017539
-0.7309979	M r	-3.077082
-3.477769	M s	0.0131887
-3.094296	M t	-0.5406611
-1.460828	M u	-0.950673
-1.552301	M y	-0.6477579
-2.801404	N '	-0.6030173
-3.616982	N -
-1.48965	N .	0.4253153
-3.616982	N /
-1.871985	N </s>
-2.023252	N A	-0.7357912
-2.579555	N B	-0.7200492
-2.977495	N C	-0.1390313
-3.286877	N D	-0.4050632
-2.579555	N E	-1.104025
-3.184876	N L	-0.1981021
-3.616982	N M
-3.286877	N O
-2.734457	N P	-0.8949372
-2.977495	N R	-0.159048
-2.801404	N S	-0.7813357
-2.977495	N T	-0.6967886
-2.977495	N W	-0.6969396
-3.184876	N Y	-0.1981005
-0.8463577	N a	-1.365822
-3.616982	N d
-0.5021871	N e	-2.567073
-3.616982	N g
-1.278525	N i	-0.8665564
-3.616982	N j
-3.286877	N k	-0.4146444
-0.3928811	N o	-1.555348
-1.98849	N u	-0.4291884
-3.184876	N y	-0.2274364
-1.728819	O '	-0.9490591
-3.11947	O -
-1.860937	O .	0.4300635
-1.600335	O </s>
-2.611059	O A	-0.4830615
-3.551576	O B
-2.171726	O C	-1.34817
-2.152421	O D	-0.760466
-3.551576	O E
-2.912089	O H	-0.6954883
-2.611059	O K	-0.4221096
-3.11947	O L	-0.2268844
-3.11947	O M	-0.2290796
-3.221472	O N	-0.4140411
-3.551576	O O
-2.368021	O P	-1.167938
-2.912089	O R	-0.1595273
-2.912089	O S	-0.6952516
-3.551576	O T
-3.551576	O V
-3.221472	O W
-2.19193	O a	-0.971368
-1.832908	O b	-1.242217
-1.424244	O c	-1.702835
-2.133938	O d	-0.8401867
-1.8909	O e	-1.521983
-0.8776612	O f	-2.350005
-2.912089	O g	-0.1397357
-1.343887	O h	-2.055527
-2.400206	O i	-1.091032
-1.970081	O k	-1.529291
-1.329458	O l	-1.018143
-2.669051	O m	0.06210744
-0.5158898	O n	-2.402504
-3.221472	O o
-1.605664	O p	-1.332968
-0.97633	O r	-0.9206378
-1.923084	O s	-0.6043342
-1.361861	O t	-1.646602
-1.206653	O u	-1.567288
-1.798146	O v	-1.246374
-2.037028	O w	-0.9595226
-2.152421	O x	-0.9145851
-3.221472	O y
-2.611059	O z	-0.3430957
-3.318139	P '	-0.1295109
-2.671425	P -	-0.8606692
-1.849495	P .	0.7553371
-1.730547	P </s>
-3.318139	P A	-0.2289712
-2.758575	P B	-0.9990675
-3.750244	P F
-3.318139	P H	-0.2292948
-2.934667	P I	-0.3094807
-3.110758	P M	-0.1366512
-3.750244	P O
-3.750244	P Q
-3.750244	P R
-2.934667	P T	-0.1979047
-3.420141	P W
-0.6398333	P a	-1.152073
-0.8790336	P e	-0.6795162
-2.758575	P f	-0.287716
-1.256452	P h	-1.683756
-1.238602	P i	-0.514778
-1.235697	P l	-1.634914
-3.750244	P m
-0.8886921	P o	-1.421905
-3.013848	P p	-0.8370184
-0.6264582	P r	-2.782872
-2.536727	P s	-0.4685505
-2.26566	P t	-1.403811
-1.33442	P u	-0.5453963
-2.758575	P y	-0.3516002
-2.419444	Q )
-1.536919	Q .	0.7376673
-2.419444	Q 3
-0.7007758	Q </s>
-2.419444	Q E
-1.683047	Q U	-0.8285425
-0.131597	Q u	-2.314667
-2.864867	R '	-0.7377225
-2.522444	R -	-0.2433543
-1.634418	R .	0.5316429
-1.750924	R </s>
-2.609594	R A	-0.1494551
-3.601264	R B
-2.718739	R C	-0.9022514
-2.484656	R D	-0.8292481
-2.563837	R E	-0.4326497
-3.601264	R F
-3.271159	R I	-0.4151181
-2.785686	R L	-0.4745764
-2.864867	R O	-0.2823964
-3.601264	R P
-2.961777	R S	-0.6978747
-3.271159	R V	-0.4143777
-0.9243504	R a	-0.870178
-3.169158	R d	-0.1987043
-0.5146189	R e	-1.581166
-1.408501	R h	-1.043262
-0.9468366	R i	-0.757588
-0.6149352	R o	-1.856317
-3.271159	R t	-0.3689854
-0.9639539	R u	-1.066402
-2.058687	R y	-0.6529202
-3.235613	S -	-0.2241237
-1.501881	S .	0.005892158
-2.069281	S </s>
-2.59879	S A	-0.8219633
-2.5824	S B	-1.444756
-3.721086	S C	-0.4150765
-3.721086	S D
-2.837673	S E	-0.562211
-4.05119	S F
-4.05119	S G
-2.712734	S H	-1.297548
-3.168666	S I	-0.547298
-3.059521	S M	-0.6528045
-3.411704	S N	-0.1538887
-3.411704	S O	-0.1288861
-2.867636	S P	-0.7014007
-2.934583	S R	-0.6080626
-2.899821	S S	-0.6475812
-4.05119	S U
-3.013764	S W	-0.6969396
-3.619085	S X	0.01793875
-1.099421	S a	-1.058859
-4.05119	S b
-1.364429	S c	-2.244667
-0.9572401	S e	-1.699076
-4.05119	S f
-0.8268075	S h	-2.346109
-1.235613	S i	-0.8072656
-2.059521	S k	-1.66315
-2.022538	S l	-1.832383
-1.934583	S m	-1.568893
-2.380296	S n	-1.127416
-0.8347869	S o	-1.301697
-1.421587	S p	-1.296672
-2.289488	S q	0.3862195
-3.168666	S r	-0.9013514
-4.05119	S s
-0.7248443	S t	-3.056837
-1.175545	S u	-1.066324
-3.721086	S v	0.05444333
-1.920342	S w	-1.759122
-2.03604	S y	-1.215813
-2.758491	S z	-1.234392
-3.899555	T '
-4.22966	T )
-3.899555	T -	-0.4141697
-2.63593	T .	0.5288099
-2.300138	T </s>
-2.961784	T A	-1.196151
-3.046105	T C	-0.9578405
-4.22966	T E
-3.590173	T F	-0.6922971
-3.797554	T H
-3.590173	T N	-0.6985124
-2.648165	T O	-1.127702
-3.899555	T P	-0.4070332
-3.347135	T R	-0.53973
-2.870013	T S	-1.073052
-3.289143	T U	-0.4191592
-2.414082	T V	-1.746154
-1.687083	T a	-1.295489
-3.590173	T c	-0.6307027
-1.562823	T e	-1.596032
-0.09386603	T h	-3.25753
-1.76248	T i	-0.7371386
-4.22966	T j
-1.256222	T o	-1.370715
-1.535177	T r	-2.326937
-2.891203	T s	-0.5261821
-1.897767	T u	-0.6523257
-1.988113	T w	-1.868495
-2.988113	T y	-0.5188035
-4.22966	T }
-2.612784	U '	-0.5990517
-2.922166	U -
-0.7220834	U .	-0.4705127
-1.683365	U </s>
-2.922166	U C
-2.515874	U F	-0.8309679
-3.25227	U G
-3.25227	U K
-3.25227	U M
-2.173451	U N	-1.07331
-2.515874	U P	-0.8371357
-2.038753	U S	-0.2922273
-3.25227	U b
-2.369746	U d	-0.8902565
-3.25227	U g
-2.135663	U h	-0.5679854
-2.612784	U k	-0.6984284
-1.767686	U l	-0.7840278
-2.612784	U m	-0.08971592
-0.2157133	U n	-1.479453
-1.3953	U p	-0.9346745
-1.853116	U r	-0.627827
-1.451416	U s	-1.666399
-1.561631	U t	-1.594945
-3.25227	U x
-2.178154	V -	-0.5417328
-1.877124	V .	0.464666
-1.064211	V </s>
-2.023252	V A	-0.9830136
-3.060679	V C
-2.730575	V E	-0.4063169
-3.060679	V P
-2.730575	V T	-0.4142086
-0.8385611	V a	-0.6269307
-0.7072821	V e	-1.217516
-0.3586105	V i	-0.9620453
-3.060679	V l
-1.036481	V o	-0.8447869
-2.730575	V r
-3.060679	V s
-2.421192	V u	-0.1227708
-3.000217	W -	-0.5317113
-1.805241	W .	0.4457808
-2.33121	W </s>
-3.079398	W A	-0.2938044
-3.383689	W B	-0.1963684
-3.383689	W C	-0.1862486
-3.815795	W I
-3.815795	W L
-3.079398	W O	-0.8347064
-3.815795	W P
-3.485691	W R	-0.4144741
-3.000217	W S	-0.7813357
-2.664425	W T	-1.144451
-3.485691	W W	-0.4150441
-0.7942913	W a	-1.403059
-0.5931096	W e	-1.373483
-0.5021364	W h	-2.503849
-0.7956449	W i	-1.552033
-3.485691	W m	-0.4147023
-1.204337	W o	-1.554791
-1.85929	W r	-1.54254
-3.485691	W u
-2.380428	W y	-0.6486686
-1.45551	X '	-0.3152677
-0.4057654	X -	-0.7623076
-0.6342447	X </s>
-1.353509	X F	-0.1920975
-1.353509	X G	-0.196241
-1.353509	X R	-0.1975831
-1.45551	X a	-0.4059649
-1.785614	X e
-1.785614	X i
-0.9700368	X y	-0.7841484
-2.361728	Y '	-0.1593185
-2.252583	Y -	-0.3364737
-1.808886	Y .	0.7039724
-2.507856	Y </s>
-3.244252	Y J
-2.914148	Y M
-2.812147	Y U	-0.1896721
-1.092883	Y a	-1.176475
-0.748944	Y e	-1.650598
-3.244252	Y f
-2.030735	Y i	-1.050096
-0.1674118	Y o	-2.222825
-3.244252	Y q
-1.775462	Y u	-0.6481836
-2.914148	Y v	0.05444333
-2.123786	Z '
-1.793682	Z -
-1.08636	Z </s>
-1.08636	Z a	-0.1210557
-0.3703565	Z e	-0.8108662
-1.691681	Z h	-0.170603
-0.7061486	Z i	-0.4771578
-1.08636	Z o	-0.3302422
-1.241262	Z u	-0.587854
-1.691681	Z w	-0.1797285
-0.008352403	[ </s>
-0.008352403	] </s>
-0.3010546	` </s>
-0.3010546	` `	-3.645349
-5.607291	a !
-3.275398	a '	-1.956903
-4.724766	a )	2.529294
-3.459274	a -	-0.6318834
-3.630345	a .	-0.2743956
-1.137055	a </s>
-4.791713	a G	-0.5174992
-5.277186	a S	-0.3791915
-3.907106	a a	-0.5326346
-1.672237	a b	-1.336045
-1.361665	a c	-0.584486
-1.36645	a d	-0.5914025
-3.089857	a e	-0.7956488
-2.215756	a f	-1.216608
-1.696543	a g	-1.365603
-2.92839	a h	0.008173108
-1.45117	a i	-2.308574
-3.008763	a j	-0.585305
-1.933978	a k	-0.9370296
-1.010113	a l	0.03434801
-1.588544	a m	-0.5104468
-0.717061	a n	-1.641814
-3.295706	a o	-1.221914
-1.753888	a p	0.2838869
-3.799012	a q	1.032536
-0.9767443	a r	-0.2139292
-1.036448	a s	-1.495105
-0.8473865	a t	-1.076241
-1.970418	a u	-1.51698
-1.677603	a v	-0.9909844
-2.166229	a w	0.1510582
-2.666774	a x	-1.303267
-1.580325	a y	-1.465549
-2.775376	a z	-0.6930645
-3.56609	b '	-1.178835
-3.277295	b -	-0.02960426
-3.198113	b .	0.007288814
-4.426684	b /	-0.1807997
-4.858789	b 1
-4.858789	b 4
-4.858789	b 6
-1.870998	b </s>
-4.858789	b C
-1.082028	b a	-1.513324
-2.067014	b b	-0.7216184
-3.542609	b c	-0.8404443
-3.208579	b d	-1.08453
-0.4915177	b e	-1.590302
-4.122393	b f	-0.4738959
-3.86712	b g	-0.9649211
-3.821363	b h	-1.075554
-1.282161	b i	-0.7439294
-2.024095	b j	-2.385321
-4.528685	b k	-0.4116015
-0.8847988	b l	-3.282501
-2.720992	b m	-1.860214
-3.617243	b n	-0.5547593
-0.9464753	b o	-1.674802
-3.86712	b p	0.04786077
-1.293475	b r	-2.959598
-1.674305	b s	-1.629473
-2.127636	b t	-2.337287
-1.017496	b u	-2.01144
-2.490949	b v	-1.519792
-3.821363	b w	-0.5938959
-1.078481	b y	-2.090256
-4.528685	b {	0.788934
-3.843339	c '	-0.9000816
-4.190126	c )	2.581618
-3.463127	c -	-0.4777302
-3.047459	c .	-0.4596133
-4.74969	c /	-0.1913463
-1.457643	c </s>
-4.190126	c A	-0.4427758
-4.102976	c B	-1.014822
-3.411975	c C	-0.836328
-4.299271	c D	-0.4363785
-4.445399	c E	-0.08644114
-3.968277	c F	-1.127871
-4.241279	c G	0.1145639
-4.366218	c I	-0.1085113
-3.822149	c K	-1.077093
-4.144369	c L	-0.2012887
-4.065187	c N	-0.3517808
-4.366218	c P	-0.7602998
-5.181795	c Q
-4.74969	c R	-0.07093868
-5.181795	c S
-4.542309	c T	-0.6861166
-4.851691	c W	-0.251082
-0.8946813	c a	-1.397451
-4.366218	c b	-0.6159859
-1.767245	c c	-2.712665
-3.998241	c d	-1.158487
-0.7913185	c e	-1.773527
-4.299271	c f	-0.9029471
-0.8372579	c h	-0.1350522
-1.207905	c i	-2.009984
-1.343583	c k	-0.7965386
-1.43349	c l	-3.357941
-3.639219	c m	-1.133508
-3.600301	c n	-1.50214
-0.7431405	c o	-0.9056609
-4.74969	c p	-0.1891531
-2.986006	c q	-0.04275465
-1.436543	c r	-3.376823
-2.300513	c s	-1.695494
-0.9906453	c t	-3.146906
-1.494839	c u	-2.145639
-4.851691	c w
-2.07767	c y	-1.460744
-4.445399	c z	-0.1742366
-2.737697	d '	-1.359728
-2.521034	d -	-0.8654323
-3.818169	d .	0.1783593
-4.010055	d /	-1.220817
-0.2421037	d </s>
-1.535839	d a	-1.609219
-3.220004	d b	-0.6606056
-3.390266	d c	-0.7921269
-1.994881	d d	-2.040733
-0.8425406	d e	-2.049886
-3.396096	d f	-1.083259
-2.209567	d g	-1.82192
-3.06667	d h	-1.445811
-1.056242	d i	-1.23014
-2.938992	d j	-0.9843086
-4.061207	d k	-1.038056
-2.061479	d l	-2.185649
-2.471537	d m	-2.437152
-2.23635	d n	-2.520689
-1.400935	d o	-1.264501
-3.885116	d p	-0.8249412
-3.432818	d q	0.2797642
-1.73564	d r	-3.198577
-1.609325	d s	-1.581259
-3.3677	d t	-0.9966637
-1.640839	d u	-0.6873298
-2.479286	d v	-0.9519987
-2.79698	d w	-1.565169
-1.903033	d y	-1.79826
-4.870648	d z
-2.645032	e '	-2.421351
-2.668062	e -	-1.206937
-3.797711	e .	-0.325892
-5.808265	e /
-0.4637665	e </s>
-5.478161	e C
-5.808265	e F
-5.808265	e G
-5.808265	e H
-4.925741	e K	-0.8082824
-5.808265	e M
-5.071869	e P	-0.1329854
-5.168779	e S	-0.6302807
-5.808265	e W
-1.343304	e a	-2.595052
-2.845011	e b	-0.8641237
-1.572952	e c	-1.721015
-1.10236	e d	-1.281837
-1.576102	e e	-2.301728
-2.027564	e f	-0.4085124
-2.148832	e g	-1.741959
-2.818046	e h	-0.7611333
-1.982741	e i	-2.006035
-3.606486	e j	-0.5610129
-2.815151	e k	-0.7225657
-1.472991	e l	-1.236637
-1.649509	e m	-1.264812
-1.056593	e n	-0.9610839
-2.390085	e o	-1.747888
-1.981752	e p	-0.4589946
-2.557853	e q	-1.044685
-0.8894712	e r	-1.966371
-1.113668	e s	-0.8013864
-1.563393	e t	-0.9725471
-2.999987	e u	-0.5098658
-1.799285	e v	-0.005796671
-2.074745	e w	0.04027462
-1.938202	e x	-1.281091
-1.96493	e y	-1.667348
-3.487538	e z	-0.6009899
-3.48291	f '	-1.14312
-2.402696	f -	-1.218321
-3.48291	f .	0.08445489
-0.3931465	f </s>
-1.248827	f a	-1.861405
-3.913035	f b	-0.7753826
-4.632299	f c
-4.424918	f d	-0.6813656
-1.114916	f e	-2.033072
-1.300414	f f	-1.827452
-4.248827	f g	-0.4247698
-4.424918	f h	-0.0911609
-1.036506	f i	-2.45337
-4.734301	f j	-0.2788796
-4.328008	f k	-0.8307691
-1.670188	f l	-3.003728
-4.18188	f m	-0.469559
-3.88085	f n	-0.8090995
-0.7894095	f o	-3.066554
-4.734301	f p	-0.4055687
-1.185619	f r	-3.624406
-2.903127	f s	-0.8858401
-1.527979	f t	-1.82126
-1.489789	f u	-2.313058
-3.725948	f w	-1.195956
-2.569097	f y	-1.548836
-4.072736	f {	0.20412
-2.967806	g '	-1.886853
-2.526832	g -	-0.900786
-2.785725	g .	-0.5265601
-3.836134	g /	-1.117608
-0.4553387	g </s>
-1.21865	g a	-1.341843
-3.458716	g b	-0.3725753
-3.359013	g d	-0.8063685
-0.8367693	g e	-1.705408
-3.179225	g f	-1.337468
-1.891272	g g	-1.521114
-0.9447682	g h	-0.9710696
-1.223676	g i	-1.585868
-4.348018	g k	-0.07993328
-1.604508	g l	-2.99271
-2.546957	g m	-1.317413
-1.60392	g n	-2.32258
-1.270468	g o	-2.621665
-3.950078	g p	-0.274307
-1.11016	g r	-3.207844
-1.65982	g s	-1.863506
-2.125301	g t	-2.100877
-1.524055	g u	-2.078307
-4.987504	g v
-3.649048	g w	-0.6169494
-2.194203	g y	-1.645805
-4.348018	g z	-0.6138082
-4.348018	g {	0.50515
-3.28264	h '	-1.356521
-2.929715	h -	-0.6560383
-4.074364	h .	0.2983346
-0.9767923	h </s>
-5.43401	h E
-0.8353145	h a	-0.6201746
-3.082716	h b	-1.44967
-3.375394	h c	-1.042044
-3.597242	h d	-1.458675
-0.3208425	h e	-2.14022
-3.498956	h f	-1.477919
-4.317401	h g	-0.5225437
-3.805518	h h	-0.6856441
-0.8972946	h i	-1.005998
-5.103905	h j	-0.2034629
-4.44234	h k	-0.02369554
-2.662584	h l	-1.747282
-2.757096	h m	-1.187829
-2.376222	h n	-2.089584
-1.131058	h o	-1.29411
-3.919462	h p	-0.2689722
-4.14131	h q	0.8398596
-1.871408	h r	-2.50845
-2.72913	h s	-1.130719
-1.62265	h t	-1.888318
-1.954731	h u	-0.651752
-4.44234	h v	-0.8652976
-3.106548	h w	-1.589035
-2.170757	h y	-1.868418
-4.166134	h z	-0.9750588
-3.647661	i '	-1.298022
-3.123048	i -	-0.9371053
-3.859964	i .	-1.384051
-2.567034	i </s>
-5.560148	i G
-5.560148	i H
-5.560148	i L
-4.823752	i M	-0.6816139
-5.560148	i S
-5.560148	i V
-1.583952	i a	-1.930186
-2.022348	i b	-1.653258
-1.140345	i c	-2.068223
-1.420082	i d	-1.857764
-1.39972	i e	-3.28611
-1.708941	i f	-2.660954
-1.518831	i g	-1.402781
-3.991243	i h	-0.8694426
-3.806719	i i	-1.183767
-3.920662	i j	1.382027
-2.175197	i k	-1.914266
-1.289142	i l	-0.1052055
-1.426194	i m	-2.133707
-0.5840721	i n	0.1322823
-1.111962	i o	-2.840091
-2.006054	i p	-0.1941631
-2.8773	i q	-0.3398004
-1.450288	i r	-1.30177
-0.9085315	i s	-1.595211
-0.9294469	i t	-1.066155
-2.902586	i u	-1.317801
-1.546693	i v	-0.9278603
-4.160994	i w	-0.7203631
-2.654078	i x	-2.101433
-4.619632	i y	-0.1990981
-2.151654	i z	-2.244678
-3.713937	j )
-3.713937	j .
-1.565921	j </s>
-3.713937	j A
-3.713937	j B
-3.713937	j K
-1.142485	j a	-1.403285
-2.977541	j b	-0.8143483
-2.635118	j d	-1.066348
-0.643087	j e	-1.896443
-1.863597	j i	-0.5799416
-0.5696402	j o	-1.63201
-0.4135852	j u	-1.470064
-2.435111	k '	-1.636478
-2.342203	k -	-0.6478076
-4.077858	k .	1.441987
-0.5099783	k </s>
-1.804151	k a	-0.7809608
-2.870477	k b	-0.8765405
-3.627439	k c	-0.1045226
-3.057564	k d	-1.096987
-0.4708034	k e	-2.301775
-2.423319	k f	-1.250307
-2.591723	k g	-1.845735
-2.564052	k h	-0.904798
-0.8893383	k i	-1.866474
-3.110809	k j	-1.294501
-2.859753	k k	-1.025297
-1.750726	k l	-2.391107
-2.673197	k m	-1.227284
-1.115365	k n	-3.258117
-2.085147	k o	-0.2069016
-3.010139	k p	-0.85193
-2.904335	k r	-1.478482
-1.232237	k s	-1.189854
-2.756534	k t	-0.9301493
-2.603305	k u	-0.5446856
-4.509964	k v
-2.494813	k w	-1.099939
-1.887076	k y	-0.771635
-2.921709	l '	-0.9815296
-5.322747	l )
-2.624455	l -	-1.101914
-3.766807	l .	0.1092784
-4.586351	l /	-0.2159902
-0.7809181	l </s>
-5.322747	l B
-4.992643	l F	-0.3422555
-4.992643	l H	-0.3999113
-4.992643	l Z	-0.3780442
-1.036833	l a	-0.9611182
-2.870348	l b	-0.6448315
-2.778816	l c	-1.208044
-1.220376	l d	-1.134045
-0.7899432	l e	-1.443736
-1.913884	l f	-0.09904432
-2.952883	l g	-1.824654
-3.387694	l h	-0.8444497
-0.9315585	l i	-1.465264
-2.255126	l k	-0.851606
-0.9052364	l l	-2.866864
-2.230325	l m	-1.255375
-2.977825	l n	-1.351466
-1.14215	l o	-0.7972939
-2.366243	l p	-1.69985
-4.683261	l q	1.419643
-2.647831	l r	-2.320308
-1.611287	l s	-1.7095
-1.688724	l t	-1.666732
-1.630086	l u	-0.8130596
-2.227655	l v	-0.9406912
-2.559409	l w	-1.73262
-1.046748	l y	0.02440953
-3.984291	l z	0.2349632
-2.996892	m '	-1.655957
-5.091223	m *
-3.032607	m -	-0.3522522
-2.953426	m .	-0.1592789
-0.8269647	m </s>
-4.761119	m E	-0.4122958
-5.091223	m V
-0.784377	m a	-1.564704
-1.510101	m b	-1.352734
-3.655857	m c	-0.4870393
-4.053797	m d	-0.1056344
-0.5886815	m e	-1.407974
-2.871953	m f	-1.810876
-3.522318	m g	-1.355468
-3.823348	m h	-0.6802086
-1.016649	m i	-1.90024
-4.099554	m k	-0.89425
-2.798524	m l	-1.198081
-1.523213	m m	-2.193025
-2.498702	m n	-1.79356
-0.9827988	m o	-1.983494
-1.160201	m p	-1.87088
-3.535283	m r	-1.527887
-1.514972	m s	-1.668571
-3.497494	m t	-0.7030485
-1.404754	m u	-2.411577
-4.275645	m v	-0.8022883
-3.638823	m w	-0.8658463
-1.750169	m y	-1.443895
-2.016091	n '	-2.400577
-2.719552	n -	-0.9426135
-3.509488	n .	-0.376276
-5.127646	n /
-0.579019	n </s>
-5.559752	n A
-1.491726	n a	-0.707972
-3.286797	n b	-1.531826
-1.374433	n c	-2.166267
-0.8319345	n d	-1.62477
-1.099375	n e	-1.215312
-2.228963	n f	-2.986907
-0.9393763	n g	-1.06519
-2.932376	n h	-0.6387312
-1.423613	n i	-0.5835009
-2.948294	n j	-1.074767
-2.164772	n k	-0.5601496
-2.090479	n l	-2.800422
-2.595469	n m	-1.993932
-1.970998	n n	-2.389794
-1.332919	n o	-2.172217
-3.198043	n p	-1.188907
-3.245864	n q	-0.1578486
-2.969657	n r	-2.222801
-1.293002	n s	-1.124992
-0.9711196	n t	-1.948536
-2.079846	n u	-0.7062056
-2.314153	n v	-1.113122
-3.189887	n w	-1.330413
-3.52669	n x	-1.872221
-1.897219	n y	-1.274726
-3.473108	n z	-0.7045852
-3.230474	o '	-1.292094
-5.59012	o (
-2.843424	o -	-0.7375913
-3.469908	o .	-0.4456024
-0.927083	o </s>
-2.098001	o a	-1.606706
-2.007634	o b	-0.4238315
-1.815819	o c	-1.703504
-1.710272	o d	-1.021415
-2.334158	o e	-0.775344
-0.9606503	o f	-2.995791
-2.076152	o g	-0.6052971
-2.667898	o h	-1.063071
-2.039077	o i	-1.814381
-3.204389	o j	-1.74898
-2.078332	o k	-0.6598736
-1.432186	o l	0.8908763
-1.240749	o m	-0.9082828
-0.7693834	o n	0.0407753
-1.54087	o o	-2.845583
-1.646844	o p	-0.1074207
-3.950634	o q	0.5058295
-0.8895301	o r	-2.462357
-1.528742	o s	-1.233279
-1.352802	o t	-0.7522767
-0.9926795	o u	-1.973582
-1.702109	o v	-1.002634
-1.426238	o w	-0.07725096
-2.863385	o x	-1.273135
-2.373717	o y	-0.8198644
-3.292622	o z	-0.5995297
-3.401645	p '	-0.8568343
-4.665269	p (
-3.145034	p -	-0.4100657
-2.844004	p .	-0.1440655
-1.175403	p </s>
-4.054857	p H	-0.9507608
-0.9500714	p a	-1.175626
-3.727498	p b	-0.1326418
-4.003705	p c	-0.1919576
-4.003705	p d	-0.3797548
-0.7355428	p e	-2.08182
-3.233671	p f	-0.7841095
-3.753827	p g	-0.9248267
-1.516252	p h	-1.015102
-1.280614	p i	-1.332857
-4.258977	p j	-0.8051746
-3.439433	p k	-1.245046
-0.9907737	p l	-3.727959
-2.167662	p m	-2.007902
-3.596219	p n	-1.109295
-0.8907275	p o	-2.050176
-1.240776	p p	-2.19055
-0.8043457	p r	-3.822684
-1.659531	p s	-1.448963
-1.472794	p t	-1.761261
-1.418495	p u	-1.86816
-4.995374	p v
-3.324479	p w	-0.7319127
-2.427747	p y	-0.5892214
-3.724241	q '
-2.732573	q .	0.6407573
-2.841717	q </s>
-2.572872	q l	-1.104277
-3.084755	q n	-0.1397914
-0.003317637	q u	-3.634496
-3.724241	q v
-3.394137	q w	-0.3649754
-2.612056	r '	-1.829342
-2.634267	r -	-0.9662402
-2.398451	r .	-1.004719
-4.759423	r /	-0.1035112
-0.6944337	r </s>
-1.095835	r a	-1.107235
-2.465398	r b	-1.525044
-1.873836	r c	-1.671216
-1.605304	r d	-2.220169
-0.6372203	r e	-0.4646373
-2.401869	r f	-1.554311
-1.921961	r g	-2.003007
-2.713318	r h	-0.8985802
-1.065415	r i	-2.125255
-4.680242	r j	0.1236119
-1.907187	r k	-0.7138331
-1.887617	r l	-1.939114
-1.691386	r m	-1.547363
-1.667334	r n	-2.408337
-1.039644	r o	-0.9558799
-2.263879	r p	-1.307907
-3.845609	r q	0.495364
-1.83857	r r	-2.180151
-1.266104	r s	-1.47526
-1.345051	r t	-2.381625
-1.819006	r u	-0.3479261
-2.104861	r v	-1.250129
-2.820903	r w	-2.015807
-4.227944	r x	-1.24398
-1.519973	r y	-1.132736
-3.926914	r z	0.2045375
-2.776177	s '	-1.44892
-5.515171	s (
-3.110389	s -	-0.7700078
-2.684653	s .	-1.152334
-5.515171	s /
-0.3685375	s </s>
-1.575687	s a	-1.39303
-2.943719	s b	-1.40687
-1.784546	s c	-2.942503
-3.047992	s d	-2.261785
-0.9865372	s e	-1.283506
-2.753469	s f	-2.18605
-3.699594	s g	-1.000278
-1.398889	s h	-0.8639491
-1.193382	s i	-0.6632686
-5.083066	s j	-0.01770605
-2.225377	s k	-1.527919
-2.076172	s l	-3.048505
-2.085048	s m	-2.128466
-2.553983	s n	-2.376772
-1.366012	s o	-2.195195
-1.664831	s p	-2.413569
-2.938669	s q	-0.06221318
-3.391385	s r	-1.332375
-1.319232	s s	-2.367491
-0.8809498	s t	-2.021636
-1.481408	s u	-2.380096
-3.88668	s v	-0.7894142
-2.450395	s w	-2.558634
-2.255028	s y	-1.988409
-5.083066	s z
-2.606798	t '	-1.83843
-2.802619	t -	-1.184648
-3.184265	t .	-0.5519754
-4.927775	t /	-0.691546
-0.6525694	t </s>
-1.353095	t a	-1.693408
-3.56984	t b	-1.514797
-2.429188	t c	-2.350627
-3.863317	t d	-1.149082
-0.9960321	t e	-1.912738
-3.135383	t f	-1.703628
-3.757513	t g	-1.67048
-0.5400966	t h	-1.026002
-0.9924186	t i	-2.361369
-4.450654	t k	-0.6995642
-1.989856	t l	-3.306176
-2.575206	t m	-2.628574
-3.125685	t n	-2.535209
-1.022313	t o	-2.113617
-3.644474	t p	-1.024976
-1.474212	t r	-3.821438
-1.555636	t s	-2.201332
-1.758629	t t	-1.567407
-1.703864	t u	-1.632297
-4.927775	t v	-0.1332783
-2.189787	t w	-2.154582
-1.745531	t y	-2.105844
-3.436413	t z	-0.5480039
-4.450654	t }	0.02802873
-2.545642	u '	-1.988526
-4.326199	u -	-0.09047443
-4.259253	u .	1.093252
-1.538621	u </s>
-4.811673	u H	-0.3999113
-5.141777	u K
-4.502291	u P	-0.6388817
-5.141777	u V
-1.459518	u a	-1.910277
-1.586495	u b	-1.687481
-1.309166	u c	-1.587523
-1.577236	u d	-0.9691949
-1.411944	u e	-1.639386
-2.266131	u f	-1.554698
-1.368911	u g	-2.117473
-3.348476	u h	-0.6103458
-1.520472	u i	-1.695861
-3.657192	u j	-0.8594933
-3.190537	u k	-0.4184002
-0.9904072	u l	-0.8016574
-1.434941	u m	-1.251362
-0.9389875	u n	-0.7112439
-2.49369	u o	-1.16329
-1.375186	u p	-0.8046753
-4.201261	u q	1.164371
-0.8326483	u r	-1.204208
-0.8798434	u s	-1.672739
-0.88592	u t	-0.9262078
-3.548048	u u	-1.062928
-3.131223	u v	0.1543446
-4.811673	u w	-0.310112
-2.861312	u x	-1.417996
-2.757998	u y	-0.6487811
-3.032469	u z	-0.591098
-3.322276	v '	-1.242504
-4.702125	v -
-2.696215	v .	-0.4401698
-2.431702	v </s>
-1.046755	v a	-1.301403
-4.702125	v c
-3.886547	v d	-0.8522996
-0.1798862	v e	-2.325268
-0.7323768	v i	-1.972995
-4.062638	v l	-0.1074336
-4.372021	v n
-1.305242	v o	-2.662535
-4.372021	v p	-0.3851736
-3.322276	v r	-1.173759
-3.03123	v s	-1.466998
-4.702125	v t
-2.761608	v u	-0.9042498
-4.372021	v v
-2.312516	v y	-1.713869
-4.702125	v z
-3.32873	w '	-1.204638
-2.812584	w -	-0.6679309
-4.627117	w .	1.225571
-0.961852	w </s>
-0.667767	w a	-1.426816
-3.093719	w b	-1.348987
-3.577372	w c	-0.7076317
-2.62976	w d	0.03458321
-0.8159223	w e	-2.536287
-3.257036	w f	-0.9315346
-4.525115	w g	-0.1943503
-0.8070889	w h	-2.141516
-0.7716237	w i	-2.815257
-3.141643	w k	-0.6864582
-2.193883	w l	-1.704822
-3.212224	w m	-1.469411
-1.368344	w n	-1.725837
-0.9660347	w o	-2.460561
-3.179432	w p	-1.054217
-1.84681	w r	-2.271907
-1.857589	w s	-0.8761619
-2.612298	w t	-1.280857
-3.038981	w u	-1.005417
-4.525115	w w
-2.951311	w y	-0.7159205
-4.957221	w z
-2.524998	x '	-1.36248
-2.042738	x -	-0.364053
-3.127059	x .	0.7376673
-0.8669871	x </s>
-4.009583	x P
-1.027674	x a	-1.940607
-3.679479	x b
-1.01695	x c	-1.832573
-1.163271	x e	-1.570794
-2.671127	x f	-1.245255
-1.854885	x h	-1.677222
-0.9526249	x i	-1.483327
-2.629734	x l	-1.330482
-4.009583	x m
-3.577477	x n	-0.1934307
-1.871786	x o	-1.026313
-0.5870867	x p	-2.738855
-3.127059	x q	1.215523
-3.127059	x r	-0.8615221
-3.577477	x s	-0.1514909
-0.7874651	x t	-1.987259
-1.861567	x u	-2.046692
-4.009583	x v
-2.796065	x w	-1.158939
-3.370096	x x	-0.3515682
-2.047877	x y	-0.6241156
-2.043641	y '	-2.290156
-2.120791	y -	-1.270806
-4.058881	y .	0.7376673
-4.611302	y /
-0.1321642	y </s>
-2.151931	y a	-1.055593
-2.339313	y b	-1.248964
-2.37764	y c	-1.009098
-2.681263	y d	-0.8295794
-1.288134	y e	-1.727944
-3.291196	y f	-0.2501698
-3.006352	y g	-0.7893515
-3.205009	y h	-1.188483
-1.801889	y i	-2.418277
-4.5093	y j	-0.196963
-3.312915	y k	-0.3627037
-2.174005	y l	-0.9930978
-1.962965	y m	-0.4262688
-2.257576	y n	-0.4879272
-1.190741	y o	-1.386835
-2.042445	y p	-1.888856
-2.277639	y r	-1.083931
-1.379194	y s	-1.634805
-2.000889	y t	-2.143656
-3.489006	y u	-0.4112766
-4.205009	y v	-0.1332783
-2.520164	y w	-1.650612
-4.5093	y y	-0.2294158
-3.148104	y z	-1.19683
-2.868351	z '	-0.5475223
-2.605109	z -	-0.3874192
-2.605109	z .	0.5615761
-1.194715	z </s>
-0.7494248	z a	-1.19282
-2.692259	z b	-0.844515
-0.3520355	z e	-1.532712
-3.683928	z f
-2.066718	z g	-1.289029
-3.251823	z h
-0.9744039	z i	-0.6371316
-2.532558	z k	-1.243313
-1.613078	z l	-1.593843
-3.251823	z m	-0.1514825
-1.328438	z o	-0.7203543
-3.353824	z q	-0.4145603
-3.044442	z r	-0.1234542
-3.353824	z s	-0.4079944
-3.251823	z t	-0.1832286
-2.284774	z u	-0.5201172
-2.743412	z v	-0.8810342
-3.353824	z w
-1.593423	z y	-0.6114913
-1.101195	z z	-1.002932
-1.241547	{ 0
-0.02802872	{ t	-1.204105
-1.241547	} -
-0.02802872	} </s>

\3-grams:
-0.0002720291	<s> ! </s>
-1.364739	<s> $ .	-0.1969242
-0.4978607	<s> $ 1	0.04113281
-0.7626786	<s> $ 2	-0.1646186
-1.006804	<s> $ 3	-0.3069249
-1.139429	<s> $ 4	-0.02666152
-0.9773487	<s> $ 5	-0.04716665
-1.2312	<s> $ 6	-0.09691161
-1.2312	<s> $ 7	-0.07506686
-1.300281	<s> $ 8	-0.191525
-1.683497	<s> $ 9	-0.1508861
-0.007178585	0 % </s>
-0.05799195	1 % </s>
-0.02632894	2 % </s>
-0.06820221	3 % </s>
-0.05799195	4 % </s>
-0.01296498	5 % </s>
-0.05799195	6 % </s>
-0.06820221	7 % </s>
-0.06820221	8 % </s>
-0.2107205	9 % </s>
-0.2107205	- & -	-0.2839612
-0.002656244	<s> & </s>
-4.907005e-05	' ' </s>
-0.09691001	- ' r	-1.036791
-0.0211893	. ' s	0.9711434
-1.161368	0 ' '	2.895275
-0.03915212	0 ' s	0.5609689
-0.6568826	1 ' '	3.048191
-0.6086605	1 ' s	1.594215
-0.09177037	2 ' '	2.69172
-1.23191	2 ' </s>
-1.23191	2 ' s	1.594215
-0.0211893	4 ' '	2.624773
-0.3868117	5 ' '	3.247845
-0.2143302	6 ' '	3.261762
-0.09691001	8 ' '	2.99275
-0.02093274	<s> ' '	0.003003597
-3.874563	<s> ' 1	-0.2839612
-3.922785	<s> ' 2	-0.1016146
-3.362812	<s> ' 3	-0.06211837
-3.264535	<s> ' 4	-0.3142538
-2.788781	<s> ' 5	-0.224423
-3.264535	<s> ' 6	-0.007937074
-1.463813	<s> ' </s>
-3.874563	<s> ' c	-0.6873654
-2.331404	<s> ' e	-0.8289883
-3.874563	<s> ' f
-3.264535	<s> ' i	-0.5662572
-3.874563	<s> ' m	-0.691153
-3.264535	<s> ' n	-0.5969667
-3.334104	<s> ' r	-0.670305
-3.874563	<s> ' s
-3.334104	<s> ' t	-0.3223997
-0.03778856	A ' s	1.214181
-0.03778856	B ' d	-1.338588
-1.289902	B ' s	1.594215
-0.5733522	C ' </s>
-1.11381	C ' e	-0.6885347
-0.60206	C ' m	-1.043723
-0.60206	C ' s	1.241645
-0.6479858	D ' </s>
-0.1995724	D ' A	-0.0287748
-1.188444	D ' s	1.594215
-0.8186572	I ' d	-0.7555512
-0.578012	I ' l	-0.5601373
-0.4059383	I ' m	-0.7701824
-2.135353	I ' s	1.492043
-0.7387806	I ' v	0.2905645
-0.3868117	K ' s	1.594215
-0.9888718	L ' A
-0.9888718	L ' I
-1.037094	L ' T	-0.7000309
-1.037094	L ' U	-0.1998312
-0.2107205	M ' s	1.594215
-0.07781375	N ' </s>
-0.2290273	O ' B	-0.2839613
-0.8310874	O ' C	-0.06914252
-0.9402318	O ' D	-0.4127643
-1.743242	O ' N	-0.7000309
-1.69502	O ' S	-0.2839612
-1.69502	O ' s	1.594215
-0.3868117	P ' s	1.594215
-0.06820221	R ' s	1.608132
-0.09691001	U ' s	1.241645
-0.2107205	X ' s	1.594215
-0.8030106	Y ' a	-0.8095336
-0.8030106	Y ' r	1.061067
-1.663698	a ' a	-0.5959631
-0.01343286	a ' s	0.0100615
-0.0234811	b ' s	1.014609
-0.04575749	c ' s	1.014609
-2.485543	d ' e	-0.3204313
-2.43732	d ' h
-0.01842738	d ' s	-0.2171824
-3.035497	e ' a
-0.8119392	e ' d	-1.050332
-1.092383	e ' l	-0.3374925
-1.319626	e ' r	-0.420803
-0.1624909	e ' s	-0.6699529
-1.594328	e ' v	0.8468672
-0.0255541	f ' s	0.7748487
-0.004500501	g ' s	0.3065909
-2.023634	h ' a	-0.6778286
-2.023634	h ' i	-0.6521356
-0.02403824	h ' s	0.8053398
-0.01772877	i ' s	0.4300398
-0.00804272	k ' s	0.259939
-1.663275	l ' </s>
-2.321525	l ' A
-0.03319821	l ' s	0.960923
-0.007686829	m ' s	0.2402842
-1.268188	n ' </s>
-3.415925	n ' b	-0.5763866
-3.415925	n ' d
-3.464147	n ' l	1.36889
-0.5400926	n ' s	-0.6727791
-0.1836016	n ' t	-0.6513569
-2.23191	o ' -
-1.021189	o ' </s>
-0.6787666	o ' c	-0.2914847
-1.367977	o ' d	0.265638
-2.280132	o ' k	-0.7906997
-0.2082759	o ' s	0.1794193
-1.514215	p ' l
-0.06494081	p ' s	0.7882127
-2.756028	r ' </s>
-2.756028	r ' l	-0.6950126
-0.004352307	r ' s	-0.5492465
-0.08039171	s ' </s>
-2.659481	s ' l	1.36889
-2.659481	s ' n	-0.003684938
-0.8265067	s ' s	0.412549
-2.417887	t ' </s>
-2.389179	t ' d	0.5804073
-1.639735	t ' l	0.3197228
-2.929637	t ' n	-0.3717884
-0.0173487	t ' s	0.3045032
-2.929637	t ' v	1.691788
-1.002406	u ' d	-0.3025637
-0.6044661	u ' l	-0.2591074
-0.3797316	u ' r	-0.7897331
-1.41258	u ' s	1.117271
-2.468399	u ' u
-0.7326338	u ' v	0.5584263
-0.02020339	v ' s	0.9509399
-1.548977	w ' d	0.3668368
-0.03476211	w ' s	0.725161
-0.01523997	x ' s	0.8309646
-1.355188	y ' d	-0.2528759
-2.770029	y ' k	-0.5763866
-1.328859	y ' l	0.155866
-1.047425	y ' r	-0.4274335
-0.1014261	y ' s	-0.4663053
-1.656218	y ' v	1.160486
-0.6878417	z ' </s>
-0.1760913	z ' s	1.241645
-0.3234747	) ( 1	-0.2145249
-0.863933	) ( 6	-0.2839612
-0.5118834	1 ( a	-0.1486272
-0.2108534	1 ( c	0.04575747
-0.4350339	8 ( a	0.004288793
-0.0001783184	<s> ( </s>
-0.4350339	1 ) </s>
-0.2107205	4 ) </s>
-0.4350339	6 ) </s>
-0.0001760772	<s> ) </s>
-0.8030106	a ) (	-0.6191127
-0.243038	a ) </s>
-0.253905	c ) (	0.07968801
-0.863933	c ) </s>
-0.2457272	* * y	-0.2101322
-0.3770061	* * z	-0.2839613
-0.09691001	3 * 0	-0.1601816
-0.005462896	<s> * *	0.0108577
-0.0252681	0 , 0	-0.7731763
-2.31964	0 , 4
-1.759668	0 , 5	0.3221897
-2.31964	0 , 7	-0.3019497
-0.3828513	1 , 0	0.6704414
-1.393575	1 , 1	0.02799919
-0.916454	1 , 2	-0.1277675
-1.393575	1 , 3	-0.1944472
-1.150537	1 , 4	-0.2520281
-0.7915152	1 , 5	-0.0976088
-1.953548	1 , 6	-0.7391003
-1.393575	1 , 7	-0.02230594
-1.393575	1 , 8	-0.2630111
-1.393575	1 , 9	-0.04878283
-0.4009249	2 , 0	0.1008853
-1.232555	2 , 1	0.08236554
-1.821235	2 , 2
-1.162985	2 , 3	-0.2219678
-0.8219302	2 , 4	-0.08826332
-0.9602329	2 , 5	0.1105129
-1.773013	2 , 6	-0.6606866
-1.821235	2 , 7	-0.1314715
-1.232555	2 , 8	-0.1230541
-0.2403322	3 , 0	0.2015555
-1.559973	3 , 3
-1.51175	3 , 4
-0.7569619	3 , 5	-0.01142985
-1.51175	3 , 8
-0.5026754	4 , 0	0.4841021
-1.453758	4 , 1
-1.453758	4 , 3
-0.9420081	4 , 4
-0.69897	4 , 5	0.1807195
-1.453758	4 , 6	-0.6559381
-1.453758	4 , 7
-1.501981	4 , 9
-0.04275198	5 , 0	-0.2001446
-1.20412	5 , 5	0.3221897
-0.146128	6 , 0	0.3591633
-1.23191	6 , 5	-0.1550792
-1.23191	6 , 6
-0.2340832	7 , 0	0.03413618
-1.465993	7 , 1
-1.465993	7 , 3
-1.514215	7 , 4
-0.9542425	7 , 5	-0.5076491
-1.465993	7 , 6	-0.6606866
-0.30103	8 , 0	0.3591633
-0.8750613	8 , 2	-0.1347281
-0.8750613	8 , 5	0.3221897
-1.386812	8 , 7
-1.386812	8 , 9
-0.3245111	9 , 0	0.5632833
-1.188444	9 , 7
-1.236666	9 , 8
-1.188444	9 , 9
-7.444899e-06	<s> , </s>
-0.2107205	& - m	-0.6202148
-0.3868117	' - w
-3.445617	- - :	0.5313017
-0.0003794622	- - </s>
-0.6878417	. - P	-0.65597
-1.522379	0 - 1	-0.1636867
-1.620656	0 - 2
-2.132407	0 - 4
-2.180629	0 - 6	-0.3071516
-1.620656	0 - :	0.1787318
-2.132407	0 - </s>
-2.180629	0 - a	-0.2960818
-2.132407	0 - b
-2.180629	0 - c
-0.6786484	0 - d	-1.618729
-1.268474	0 - f	-0.844701
-1.591949	0 - g	-0.4021417
-2.132407	0 - h
-1.591949	0 - i	-0.1139846
-2.132407	0 - l	-0.6977819
-0.8077431	0 - m	0.02020717
-1.620656	0 - o	-0.4538972
-1.522379	0 - p	-0.2697409
-2.180629	0 - s	-0.3284871
-1.591949	0 - t	-0.4648051
-0.7755584	0 - y	0.02514887
-0.6368221	1 - 1	-0.8200159
-1.673916	1 - 2
-1.625694	1 - 3	-0.5045726
-1.673916	1 - 6	-0.3071516
-1.625694	1 - 7
-1.625694	1 - 8
-1.113943	1 - a	-1.04656
-1.625694	1 - d	-0.4995749
-1.113943	1 - i	-0.4804711
-1.673916	1 - m
-1.085236	1 - y	0.1366995
-0.8798602	2 - 1	-0.3844062
-1.916954	2 - 2
-1.356981	2 - 3	-0.1567165
-1.868732	2 - 4
-0.9590414	2 - 5	-1.073606
-1.868732	2 - a
-1.258704	2 - c	-0.763597
-1.328274	2 - d	-0.3674283
-1.356981	2 - g	-0.94721
-1.868732	2 - h	-0.5767059
-0.9590414	2 - i	-0.4701467
-1.868732	2 - l	-0.4760595
-1.868732	2 - o
-1.868732	2 - r	-0.6495001
-1.916954	2 - s
-1.868732	2 - t
-0.8129134	2 - y	-0.3541611
-0.6532125	3 - 1	-0.2353777
-1.032056	3 - 3	-0.06955292
-1.642084	3 - 5	-0.534337
-0.8872957	3 - :	0.327359
-1.642084	3 - b
-1.690306	3 - c	-0.8951615
-1.642084	3 - h
-1.642084	3 - i	-0.1279013
-1.642084	3 - m
-1.642084	3 - t	-0.5969517
-1.690306	3 - y	-0.07687104
-1.754789	4 - 0	-0.222026
-0.640978	4 - 1	-0.1592392
-1.754789	4 - 2	-0.565936
-1.754789	4 - </s>
-1.243038	4 - H	-0.9999068
-1.754789	4 - c	-0.6227034
-1.21433	4 - d	-0.09675783
-1.754789	4 - f	-0.5438483
-0.7659168	4 - h	-1.381808
-1.14476	4 - i	-0.2300739
-1.803011	4 - p	-0.2229975
-1	4 - y	-0.08115983
-0.9951475	5 - 1	-0.2393076
-1.318622	5 - 3	-0.30192
-1.85908	5 - 5	-0.534337
-1.85908	5 - 7	-0.5660323
-1.85908	5 - </s>
-1.85908	5 - a
-1.85908	5 - b	-0.6800243
-1.907303	5 - c	-0.3274042
-0.64836	5 - d	-1.352129
-1.249053	5 - f	-0.3148983
-1.85908	5 - g	-0.5946401
-1.249053	5 - m	-0.2453347
-1.104292	5 - p	-0.1757493
-1.85908	5 - r	-0.6495001
-1.34733	5 - t	-0.9495215
-1.318622	5 - y	0.356674
-1.650053	6 - 0	-0.5994101
-1.109595	6 - 1	-0.02267838
-1.138303	6 - 2
-1.109595	6 - 3	-0.1280517
-1.650053	6 - 5
-1.650053	6 - d	-0.4995749
-1.109595	6 - f	-0.4117017
-1.109595	6 - h	-0.5485826
-1.109595	6 - i	-0.1139846
-1.698275	6 - m	-0.3256933
-1.138303	6 - p	-0.354537
-1.109595	6 - y	0.2549295
-0.60206	7 - 1	-0.2873057
-1.639154	7 - 2	-0.76559
-1.079181	7 - 3	-0.02730362
-1.639154	7 - 4	-0.1347492
-1.639154	7 - 6	-0.1454073
-1.639154	7 - 8	-0.258469
-0.7781513	7 - d	-0.4264181
-1.639154	7 - m	-0.7379928
-1.590932	7 - p	-0.5911009
-1.639154	7 - y	-0.07687104
-0.7303784	8 - 1	-0.2087006
-1.591381	8 - 2
-1.591381	8 - 3	-0.3159317
-1.543159	8 - 7
-1.543159	8 - :	0.5313017
-1.591381	8 - d	-0.6992289
-0.7303784	8 - i	-0.3829965
-1.543159	8 - m
-1.543159	8 - o	-0.6979613
-1.591381	8 - p	-0.81006
-1.543159	8 - y
-0.4210053	9 - 1	-0.0665932
-1.372088	9 - 5
-1.420311	9 - 6	-0.2417763
-1.372088	9 - c	-0.6227034
-1.420311	9 - d	-0.6992289
-1.372088	9 - f	-0.5438483
-0.01124207	<s> - -	-0.4768684
-3.504702	<s> - .	-0.1016146
-3.45648	<s> - 2	-0.5981207
-3.504702	<s> - 7	-0.8728579
-1.654695	<s> - </s>
-3.504702	<s> - i	-0.3246098
-0.9510832	A - 1	-0.6134351
-0.3410552	A - Z	-0.1905088
-1.23191	B - 4	-0.6741371
-0.2082759	B - 5	-0.914371
-0.6218818	B - 7	-0.6017475
-0.09691001	C - p	-0.8979749
-0.03778856	E - c	-1.002737
-0.3868117	F - 1	-0.6825791
-0.2107205	I - E	-0.6788786
-0.2143302	L - C	-0.6675301
-0.9510832	P - 1	-0.6850717
-0.4393327	P - 2	-0.9506906
-0.4106249	P - 4	-0.5914348
-0.3410552	R - s	-0.6904676
-0.6878417	S - 1	-0.6850717
-0.6878417	S - 2	-0.5981207
-0.2107205	T - 3	-0.6840352
-0.8030106	V - 1	-0.8130891
-0.243038	V - s	-1.003167
-0.1473835	W - r	-0.5475976
-1.300335	X - 2	-0.8622919
-1.252113	X - g	-0.6889879
-0.1383027	X - r	-1.240142
-0.3521825	Y - c	-0.9752733
-0.9121551	Y - r	-0.7611682
-2.068502	a - G	-0.3099764
-2.02028	a - H	-0.63767
-2.02028	a - M	-0.5594853
-2.02028	a - P	-0.6376293
-1.50853	a - S
-1.2075	a - U	-0.3899711
-2.02028	a - a
-1.265492	a - b	-0.335281
-1.069197	a - c	-0.06158626
-1.2075	a - d	-0.320354
-2.068502	a - e
-1.265492	a - f	-0.3529112
-2.068502	a - g
-1.265492	a - h	-0.1551607
-1.410252	a - l	-0.1056715
-1.50853	a - m	-0.1429459
-1.410252	a - p	-0.1218366
-1.50853	a - r	-0.3703397
-0.9644617	a - s	-1.027896
-1.50853	a - t	-0.5599681
-1.265492	a - v	-0.6324426
-1.265492	a - w	-0.1591152
-2.02028	a - y	0.1227829
-1.453758	b - </s>
-0.8437306	b - c	-0.2832348
-1.453758	b - f
-1.453758	b - h
-1.501981	b - i	-0.3275552
-1.501981	b - p	-0.2747763
-0.8437306	b - s	-0.2613042
-1.501981	b - t	-0.2661934
-1.590932	c - T
-1.639154	c - a	-0.2960818
-1.050473	c - c	-0.4996423
-1.590932	c - e	-0.6128488
-0.60206	c - l	-1.014777
-1.590932	c - o	-0.6442159
-1.590932	c - p
-0.5672979	c - s	-0.5845035
-1.841203	d - 1	-0.8173779
-2.653983	d - 2
-2.702206	d - </s>
-2.142233	d - A
-2.142233	d - J	-0.9884353
-2.113525	d - L	-0.5425632
-2.142233	d - M	-0.2222513
-2.653983	d - O	-0.5644487
-2.702206	d - S	-0.6747022
-2.653983	d - T
-2.653983	d - U	-0.6475982
-1.598165	d - a	-0.3017931
-1.142233	d - b	-0.3385273
-1.382565	d - c	0.2985728
-1.443263	d - d	0.4295279
-1.7029	d - e	-0.1547967
-1.081535	d - f	-0.4196772
-1.598165	d - g	-0.38813
-1.513844	d - h	-0.09364003
-1.513844	d - i	-0.3581729
-2.142233	d - j	-0.9027781
-1.110825	d - l	-0.3845631
-1.744293	d - m	0.06576902
-1.568202	d - n	0.8759704
-1.267172	d - o	-0.4762332
-1.568202	d - p	-0.2499007
-1.32932	d - r	-0.02729881
-1.02829	d - s	-0.3978733
-1.072195	d - t	-0.1174154
-1.382565	d - u	-0.9942008
-2.142233	d - v	-0.168359
-1.297135	d - w	-0.2465258
-2.142233	d - y	-0.229787
-3.012467	e - &	-0.2839612
-3.012467	e - 2	-0.662638
-1.988833	e - </s>
-3.060689	e - A
-2.199687	e - B	-0.5017771
-2.500717	e - C	-0.2173833
-2.472009	e - D	-0.009904101
-2.102777	e - E	-0.5159143
-2.500717	e - F	-0.1279738
-3.060689	e - G
-2.472009	e - H	-0.05012634
-3.012467	e - I
-2.472009	e - J	-0.0605067
-3.060689	e - K	-0.171343
-2.402439	e - L	-0.07066864
-3.060689	e - M
-3.060689	e - N	-0.8764882
-2.500717	e - O
-2.199687	e - P	-0.7585977
-3.012467	e - R
-2.061384	e - S	-0.2961949
-2.500717	e - W	0.1537853
-3.012467	e - Z
-1.276702	e - a	-0.3036647
-1.430679	e - b	-0.01638627
-1.057454	e - c	-0.1133591
-1.257679	e - d	0.06063378
-1.245444	e - e	0.09835827
-1.263928	e - f	0.1302239
-1.704837	e - g	-0.01442665
-1.403807	e - h	-0.1765881
-1.511712	e - i	-0.3421209
-2.061384	e - j	-0.2490305
-2.148534	e - k	0.05434936
-1.370383	e - l	-0.09017646
-1.403807	e - m	-0.5449555
-1.872328	e - n	-0.2714258
-1.386773	e - o	-0.2207959
-1.296597	e - p	-0.1818684
-2.402439	e - q	0.4028001
-1.558709	e - r	1.04203
-1.002406	e - s	-0.3769716
-1.168278	e - t	0.1666365
-1.760354	e - u	0.02630591
-2.023595	e - v	-0.1155709
-1.511712	e - w	0.0445168
-1.801747	e - y	-0.1367278
-2.533973	f - A	-0.6496619
-2.582195	f - B	-0.8303438
-1.281859	f - a	-0.2506799
-1.478154	f - b	-0.405269
-0.8181021	f - c	-0.8553159
-0.9000062	f - d	-0.7831751
-1.209309	f - e	-0.5474768
-1.420162	f - f	0.1891235
-1.923945	f - g	-0.3324499
-1.177124	f - h	-1.195775
-1.302063	f - i	-0.1505092
-1.779184	f - l	-0.1402607
-1.244071	f - m	-0.4466245
-2.582195	f - o
-1.209309	f - p	0.07437432
-1.420162	f - r	-0.5893657
-0.9521843	f - s	-0.538251
-1.420162	f - t	-0.2084226
-1.993514	f - u	-0.620168
-2.533973	f - v
-1.510339	f - w	-1.149772
-0.9318842	g - J	-0.880426
-2.332936	g - M
-2.332936	g - O
-1.792478	g - R	-0.162352
-2.332936	g - S	-0.6749174
-1.520156	g - a	-0.2881934
-1.578148	g - b	-0.2123438
-1.309303	g - c	0.04840299
-1.578148	g - d	-0.2337783
-1.578148	g - e	-0.3541816
-1.578148	g - f	-0.1456289
-2.381159	g - g	-0.2888974
-1.520156	g - h	-0.2309561
-2.381159	g - i	-0.3275552
-2.332936	g - j
-2.332936	g - k
-1.423246	g - l	-0.1285792
-1.722908	g - m	-0.2890997
-1.381853	g - o	-0.1341159
-1.722908	g - p	-0.1055146
-0.69897	g - r	-0.9814818
-1.219126	g - s	-0.1617514
-0.810462	g - t	-0.9396734
-2.332936	g - v
-1.821186	g - w	-0.05014308
-2.376558	h - </s>
-1.864808	h - A	-0.2059726
-2.376558	h - B	-0.619966
-1.512625	h - C	-0.5823851
-2.42478	h - H	-0.837324
-1.466868	h - P	-0.9091926
-2.376558	h - S	-0.6854676
-1.76653	h - a	-0.4240643
-1.352924	h - b	-0.3828393
-0.7344739	h - c	-0.8633721
-1.76653	h - d	-0.004333794
-1.563778	h - e	-0.6520639
-2.376558	h - f	-0.6743782
-1.76653	h - g	-0.4947072
-1.262748	h - h	-0.3036495
-1.387686	h - l	-0.08017534
-1.62177	h - m	-0.2935412
-1.62177	h - o	-0.2113226
-1.068928	h - p	-0.6955798
-2.376558	h - q	0.5049728
-1.864808	h - r	-0.9140841
-0.9105651	h - s	-0.6279587
-1.262748	h - t	-0.06582522
-1.387686	h - u	-0.7739419
-1.8361	h - v	-0.1465352
-1.352924	h - w	0.0405553
-1.496584	i - A	-0.6859618
-1.768906	i - B	-0.4878194
-1.195554	i - C	-0.7512631
-1.797614	i - F	-0.9578127
-1.797614	i - N	0.04121536
-0.7369159	i - S	-1.096287
-1.496584	i - a	-0.3591259
-2.309364	i - b
-1.399674	i - c	-0.1708646
-1.768906	i - d	-0.2467572
-1.797614	i - f
-2.309364	i - g
-2.357586	i - h	-0.2933919
-1.077454	i - i	-0.1508918
-2.309364	i - j
-1.797614	i - l	-0.8286294
-1.169225	i - m	0.0309673
-2.309364	i - o	-0.6550588
-1.169225	i - p	0.05146158
-1.797614	i - r	-0.5108216
-0.9847004	i - s	-0.5563256
-0.9525157	i - t	-1.686352
-2.309364	i - v	-0.523056
-2.309364	i - w	-0.5274121
-2.357586	i - y	0.4908863
-1.499566	k - T	-0.6286779
-1.088941	k - a	-0.3369901
-0.9842057	k - b	-0.2823851
-2.088246	k - c
-2.088246	k - d
-1.051152	k - e	-0.595518
-1.528274	k - f	-0.04066391
-2.040024	k - g	-0.4822905
-1.429996	k - h	-0.5916349
-2.040024	k - i
-2.040024	k - k
-1.088941	k - l	-0.2165499
-1.499566	k - m	-0.1415288
-1.130334	k - o	-0.4432682
-2.040024	k - p
-2.088246	k - r	-0.2947151
-0.9262138	k - s	-0.125673
-1.528274	k - t
-1.130334	k - u	-0.3609061
-1.499566	k - w	-0.1508912
-1.960528	l - A	-0.6285214
-1.815767	l - B	-0.2512547
-2.570556	l - D
-2.618778	l - L	-0.2553232
-2.058805	l - M	-0.9120551
-1.815767	l - N	-0.4637573
-2.570556	l - S
-2.058805	l - T	-0.1653256
-1.456746	l - a	-0.2185627
-1.142352	l - b	-0.1670514
-1.129387	l - c	-0.634048
-1.484774	l - d	-0.4721642
-1.430417	l - e	-0.6554295
-1.338646	l - f	0.8475147
-1.619473	l - g	-0.1789365
-1.815767	l - h	-0.2982855
-1.299138	l - i	-0.4433203
-1.262926	l - k	-0.5720971
-1.359836	l - l	-0.8769081
-1.514737	l - m	-0.3511645
-2.618778	l - n	-0.1509499
-1.514737	l - o	-0.465143
-1.456746	l - p	-0.1343749
-1.169504	l - r	-0.4095417
-1.169504	l - s	-0.3466771
-0.9284717	l - t	-1.117331
-2.618778	l - v	-0.1549526
-1.280654	l - w	-0.3054227
-1.979102	m - 1	-0.882233
-1.93088	m - 4	-0.5028526
-1.93088	m - G	-0.6211668
-1.979102	m - M	-0.1913819
-1.93088	m - W
-1.419129	m - b	-0.1148287
-1.390422	m - c	-0.137038
-1.419129	m - d	-0.1460091
-1.176091	m - e	-0.5203519
-1.176091	m - f	-0.2432979
-1.93088	m - h	-0.6614953
-1.176091	m - l	-0.2287173
-1.979102	m - m	-0.1499463
-1.021189	m - n	-0.9015933
-1.979102	m - o	-0.222973
-0.8750613	m - p	-1.057387
-1.979102	m - r	-0.2947151
-1.176091	m - s	-0.1150276
-1.979102	m - t	-0.3246934
-1.93088	m - w
-2.712464	n - </s>
-1.761381	n - A	-0.3076606
-2.172006	n - B	-0.254169
-1.598654	n - C	-0.9081703
-2.760686	n - D	-0.2480696
-2.172006	n - E	-0.2529905
-2.200714	n - F	-0.6717162
-2.102436	n - G	-0.2464423
-2.200714	n - H
-2.760686	n - I	-0.8095487
-1.957676	n - J	0.06922609
-2.712464	n - K	-0.6559381
-2.712464	n - L
-1.802774	n - M	-0.2135784
-2.760686	n - N	-0.4594685
-2.200714	n - P	-0.1603602
-2.712464	n - S
-2.172006	n - T	-0.1109592
-2.102436	n - W	-0.1655588
-2.712464	n - Y	-0.5028526
-1.078498	n - a	-0.6606143
-1.404834	n - b	0.5277894
-1.200714	n - c	0.2159768
-1.547501	n - d	0.5432054
-1.802774	n - e	-0.4374901
-1.422562	n - f	0.1539961
-1.68883	n - g	-0.1948332
-1.802774	n - h	0.003691792
-1.626683	n - i	-0.127724
-1.211709	n - l	0.2954124
-1.311412	n - m	0.1682172
-2.102436	n - n	-0.2899972
-1.598654	n - o	-0.4706758
-1.200714	n - p	0.3231066
-1.547501	n - r	-0.2574879
-0.9965938	n - s	0.3525985
-1.112578	n - t	-0.3907667
-1.723593	n - u	-0.4334567
-1.547501	n - v	-0.7918485
-1.547501	n - w	-0.05872631
-1.802774	n - y	-0.2194625
-2.667182	o - 1	-0.8130891
-2.61896	o - 3	-0.5045726
-1.864172	o - </s>
-1.630089	o - A	-0.2646777
-1.533179	o - C	-0.2544944
-2.10721	o - E	-0.2016096
-2.61896	o - H	-0.5817617
-2.667182	o - J
-2.667182	o - P
-1.246872	o - S	-0.6571596
-2.10721	o - T	-0.3954083
-1.595327	o - W	-0.7704644
-2.667182	o - Y	-0.2852091
-1.50515	o - a	-0.3076108
-1.533179	o - b	-0.1429381
-1.019074	o - c	-0.7105402
-1.246872	o - d	-0.813606
-1.50515	o - e	-0.3159682
-1.630089	o - f	0.1101902
-1.630089	o - g	-0.5748968
-1.595327	o - h	0.0313707
-1.533179	o - i	-0.2354902
-2.61896	o - j	-0.5695134
-1.755027	o - l	-0.1933048
-1.453997	o - m	0.1594838
-2.008932	o - n	-0.3371995
-0.945842	o - o	-0.9185739
-1.533179	o - p	-0.1787307
-2.61896	o - q	0.5049728
-1.70927	o - r	-0.5871375
-1.075801	o - s	-0.2806602
-1.232149	o - t	-0.2091784
-2.61896	o - u	-0.6340846
-2.008932	o - v	-0.2075233
-1.533179	o - w	-0.2389187
-1.80618	o - y	-0.1323124
-1.182146	p - a	-0.2706739
-1.210853	p - b	-0.1812866
-1.722604	p - d	-0.6438188
-1.770826	p - g	-0.1141871
-1.770826	p - h	-0.2375019
-1.112576	p - l	-0.1559623
-1.722604	p - m
-1.722604	p - o
-0.9678153	p - p	-0.1164353
-1.722604	p - q	0.5049728
-1.770826	p - r	-0.2388001
-0.7715207	p - s	-0.3702929
-0.9098234	p - t	-0.3740734
-2.222066	r - '	-0.3527471
-2.733816	r - 5	-0.534337
-1.921036	r - </s>
-2.123788	r - A	-0.2135864
-2.222066	r - B
-1.979028	r - C	-0.1432119
-2.222066	r - D	-0.8941093
-2.782038	r - G	-0.1948241
-2.123788	r - H	-0.05229026
-2.733816	r - J
-2.733816	r - L
-2.222066	r - M	0.01845387
-2.733816	r - O
-1.744945	r - P	-1.167996
-1.593677	r - S	-0.2785973
-2.733816	r - T	-0.6319722
-2.733816	r - Y	-0.6475982
-1.045975	r - a	-0.9273813
-1.593677	r - b	-0.2472028
-1.045975	r - c	-0.2345841
-1.523096	r - d	0.1114568
-1.409153	r - e	-0.2077779
-1.677998	r - f	0.3302829
-1.824126	r - g	-0.08870909
-1.523096	r - h	0.01730752
-1.545372	r - i	-0.4064776
-2.123788	r - k	-0.3426184
-1.332764	r - l	-0.2708236
-1.233061	r - m	-0.8777207
-2.782038	r - n
-0.9548941	r - o	-0.7303583
-1.244342	r - p	-0.4643505
-1.332764	r - r	0.9500048
-1.211342	r - s	-0.2537331
-1.222066	r - t	-0.2459729
-2.733816	r - u	-0.01866066
-1.648035	r - w	0.4950736
-1.979028	r - y	-0.08115983
-1.024933	s - C	-1.256623
-2.325269	s - D
-1.253413	s - F	-0.9378521
-2.277046	s - H	-0.5817617
-2.277046	s - M
-2.277046	s - P
-1.736588	s - R	-0.04412198
-2.277046	s - T
-1.736588	s - a	-0.66059
-1.413113	s - b	-0.1054849
-1.367356	s - c	-0.2348039
-1.736588	s - d	-0.1230541
-1.088602	s - e	-0.9168723
-1.288175	s - f	-0.1535086
-2.325269	s - g
-1.667018	s - h	-0.2084568
-1.112083	s - i	-0.633617
-1.253413	s - l	-0.6098533
-1.765296	s - m	-0.2426817
-1.765296	s - n	-0.3596554
-1.288175	s - o	-0.3536115
-1.522258	s - p	-0.1962095
-1.325963	s - r	-0.6319203
-1.136907	s - s	-0.4994813
-1.191265	s - t	-0.2208817
-2.222066	t - A	-0.6021056
-2.782038	t - B	-0.2518626
-2.222066	t - C	-0.1747658
-2.782038	t - D	-0.2242079
-2.733816	t - G
-2.222066	t - H	-0.3451978
-1.648035	t - I	-0.8239088
-2.733816	t - L
-2.782038	t - S
-1.869883	t - W	-0.301483
-1.305612	t - a	-0.1074063
-1.305612	t - b	-0.3240201
-1.305612	t - c	-0.102741
-1.233061	t - d	0.2452023
-1.744945	t - e	-0.5944353
-1.255924	t - f	0.5992442
-1.481703	t - g	-0.3104818
-1.200877	t - h	-0.6694869
-1.568853	t - i	-0.4941701
-2.782038	t - j	-0.20141
-2.782038	t - k	-0.5898023
-1.267823	t - l	-0.3357642
-1.443915	t - m	0.008194089
-1.921036	t - n	-0.173345
-1.152028	t - o	-0.9868822
-1.593677	t - p	-0.4475789
-1.426186	t - r	0.05140686
-1.083763	t - s	-0.1558326
-0.9376351	t - t	-0.3109026
-2.123788	t - u	-0.1208333
-2.782038	t - v	-0.1549526
-1.376968	t - w	-0.8532764
-1.869883	t - y	0.4461549
-0.6878417	u - b	-0.6170162
-2.016901	w - B
-1.50515	w - a
-1.152967	w - b	-0.168038
-0.9311187	w - c	-0.3515099
-1.20412	w - d	-0.5992135
-2.016901	w - e
-1.065817	w - f	0.0796822
-1.262112	w - g	-0.3386411
-1.065817	w - h	-0.0460203
-2.016901	w - k	-0.6022373
-1.476442	w - l	-0.08460282
-1.262112	w - m	-0.1209042
-1.262112	w - p	-0.1159127
-2.016901	w - r
-1.476442	w - s	-0.1359692
-1.50515	w - t	-0.397733
-1.10721	w - u	-0.3195134
-1.406873	w - w	-0.298462
-1.229081	x - 2	-0.7398019
-1.839109	x - M	-0.6855702
-1.887331	x - P	-0.7543089
-1.839109	x - a
-1.839109	x - c	-0.5135589
-1.026329	x - e	-0.8753681
-0.7832909	x - f	-0.7795235
-1.839109	x - g	-0.5946401
-1.839109	x - l	-0.4760595
-1.229081	x - m	-0.2250455
-1.887331	x - o	-0.8547127
-1.298651	x - p	-0.1876233
-1.026329	x - r	-0.7720771
-1.327359	x - s	-0.1753247
-1.327359	x - t
-2.741101	y - 6	-0.1454073
-2.082851	y - F	-0.3512649
-2.692879	y - G	-0.5629275
-2.692879	y - H
-2.692879	y - J	-0.07442331
-2.692879	y - M
-2.692879	y - S
-1.741796	y - a	-0.2990956
-1.527916	y - b	-0.2150217
-1.607097	y - c	0.06078237
-1.527916	y - d	0.04629186
-1.402977	y - e	-0.5977975
-0.6759787	y - f	-0.531876
-1.741796	y - g	-0.05091763
-1.741796	y - h	-0.57613
-1.828946	y - i	0.1847018
-2.692879	y - k
-1.527916	y - l	-0.3157708
-1.368215	y - m	0.1927892
-1.336031	y - n	-0.8869035
-1.111091	y - o	-0.6670626
-1.336031	y - p	-0.3392174
-2.152421	y - r	-0.4293677
-0.9023751	y - s	-0.1656259
-0.913957	y - t	0.3327696
-2.152421	y - u	0.349929
-1.460969	y - w	-0.4092901
-2.082851	y - y	0.02061027
-0.9510832	z - H	-0.63767
-0.9510832	z - b	-0.6511569
-0.4106249	z - f	-0.6225839
-0.2839966	$ . 0	-0.3852071
-1.355853	$ . 1	-0.2683971
-1.307631	$ . 3	-0.6901947
-1.307631	$ . 5	-0.5841928
-1.307631	$ . 8
-0.3868117	- . 5
-0.9731278	0 . 0	-0.01064469
-0.7178553	0 . 1	-0.1898606
-1.018885	0 . 2	0.03211126
-0.7690079	0 . 3	-0.002191305
-1.27279	0 . 4	-0.1023499
-0.7970366	0 . 5	0.2079784
-1.371068	0 . 6	0.06569034
-1.93104	0 . 7
-0.9731278	0 . 8	-0.1755749
-1.93104	0 . 9
-0.8037053	1 . 0	-0.03542817
-0.69897	1 . 1	-1.09193
-0.8037053	1 . 2	0.166588
-1.754789	1 . 3
-0.6690068	1 . 5	-0.4457128
-1.14476	1 . 6	0.1221307
-1	1 . 8	0.05872515
-1.754789	1 . 9	-0.2731785
-1.140084	2 . 0	-0.1013536
-0.925754	2 . 1	-0.014395
-0.867762	2 . 2	0.09241688
-1.140084	2 . 3	0.08754805
-1.070515	2 . 4	0.2928269
-0.5947608	2 . 5	0.4886966
-1.168792	2 . 6	-0.5234434
-1.168792	2 . 7	0.07900399
-1.168792	2 . 8	0.2001954
-1.059428	3 . 0	-0.1347773
-0.6488034	3 . 1	-0.1463815
-0.9898586	3 . 2	0.2252586
-1.648109	3 . 3	-0.4886267
-1.648109	3 . 4	-0.3091121
-0.5762527	3 . 5	-0.1191495
-1.599887	3 . 7
-1.648109	3 . 8	-0.4767275
-1.648109	3 . 9	0.09492487
-0.9420081	4 . 0	-0.2536997
-1.501981	4 . 1	-0.5498477
-0.5898255	4 . 2	-0.5642715
-0.8437306	4 . 3	-0.0600228
-1.501981	4 . 5	-0.4694527
-0.9133002	4 . 7	-0.08987942
-1.453758	4 . 9
-1.449274	5 . 1	0.01790968
-1.401052	5 . 2	-0.3091762
-0.5882717	5 . 3	-0.4929155
-0.8893017	5 . 4	0.2363866
-0.8605939	5 . 5	-0.2558822
-1.449274	5 . 6	-0.3705274
-1.449274	5 . 7	-0.4216799
-1.401052	5 . 8	-0.2770736
-0.7596679	6 . 1	-0.7027636
-1.271418	6 . 2	-0.3091762
-1.31964	6 . 3	0.07913059
-1.271418	6 . 4	-0.0001772642
-1.271418	6 . 5
-1.271418	6 . 6
-1.31964	6 . 7	-0.4216799
-1.271418	6 . 8
-1.271418	6 . 9	-0.2731785
-1.252113	7 . 0	-0.4902635
-1.252113	7 . 1
-1.252113	7 . 2
-0.7403627	7 . 3
-0.4973246	7 . 5	0.1661557
-1.252113	7 . 6
-1.252113	7 . 8
-1.104041	8 . 0	-0.6899174
-1.104041	8 . 5	-0.2160894
-0.544068	8 . 6	-0.09829867
-1.055819	8 . 9	-0.2731785
-1.188362	9 . 2	-0.5088301
-0.5996811	9 . 3	-0.2750562
-1.140139	9 . 4	-0.0001772642
-1.188362	9 . 5	-0.2160894
-1.188362	9 . 8	0.09102982
-8.800917e-06	<s> . </s>
-0.1664755	A . </s>
-2.212887	A . A	0.9540653
-2.261109	A . B	0.2151421
-1.303196	A . D	0.4057653
-2.212887	A . I	0.3422454
-1.189253	A . L	0.1326256
-0.8260748	A . M	0.2490009
-2.212887	A . U	-0.0001772642
-2.029795	B . '	0.423418
-0.1580682	B . </s>
-1.981573	B . A	0.9540653
-1.981573	B . B	0.4147961
-0.7294593	B . C	0.5303668
-1.981573	B . I	0.3422454
-1.981573	B . S	1.597518
-2.164963	C . '	0.623072
-0.05115252	C . </s>
-1.653213	C . A	0.6014954
-2.164963	C . B	0.4147961
-2.213185	C . C	0.9932934
-1.624505	C . D	0.7619273
-2.213185	C . I	0.1425915
-0.1691424	D . </s>
-2.051334	D . A	0.7544113
-0.6954817	D . C	0.4771212
-2.003112	D . H	0.2039427
-2.051334	D . I	0.1425915
-2.051334	D . R	0.3799524
-2.003112	D . W	0.0859068
-0.04777278	E . </s>
-1.351503	E . C	1.206864
-1.891962	E . G	-0.0001772642
-0.09970291	F . </s>
-1.801785	F . B	0.4147961
-1.850007	F . D	0.5483568
-1.191757	F . P	0.3448082
-1.801785	F . R	0.5796064
-1.801785	F . S
-0.03778856	G . </s>
-1.590932	G . T	-0.0001772642
-0.04800773	H . </s>
-1.303731	H . M	1.055132
-0.2340832	I . </s>
-1.514215	I . A	0.7544113
-0.9255347	I . Q	0.1524101
-1.465993	I . R	0.5796064
-0.01389861	J . </s>
-2.013494	J . D	0.7480107
-0.05270635	K . </s>
-1.453758	K . C	1.192947
-0.09247085	L . </s>
-0.7493795	L . A	0.5070845
-0.08830984	M . </s>
-1.19382	M . A	0.69897
-1.49485	M . C	0.8403774
-2.0066	M . P	0.4469808
-2.054823	M . S	1.397864
-1.487845	N . '	0.2705021
-0.1760913	N . </s>
-1.135663	N . C	0.8920946
-1.389568	N . F	0.1529226
-1.999596	N . J	-0.0001772642
-0.9138138	N . Y	0
-0.1760913	O . </s>
-1.022445	O . E	0.09982342
-0.7501225	O . K	0.2218488
-0.1309291	P . </s>
-1.821235	P . D	0.5483568
-0.9090803	P . M	0.7403626
-0.05799195	Q . </s>
-1.887331	R . '	0.423418
-0.04860533	R . </s>
-1.839109	R . H	0.2039427
-1.839109	R . S	1.597518
-0.05249087	S . </s>
-1.909823	S . A	0.6014954
-1.881116	S . C	1.206864
-1.881116	S . K	0.4908606
-1.557641	S . R	0.2787536
-1.511883	S . S	1.255273
-0.05115252	T . </s>
-1.465993	T . W	0.0859068
-2.402451	U . '	0.623072
-0.6865804	U . </s>
-1.8907	U . M	0.6886455
-0.6934198	U . N	0.006733418
-0.2447871	U . S	0.0462451
-0.02996322	V . </s>
-0.02864518	W . </s>
-0.07572071	Y . </s>
-1.307631	Y . M	1.041215
-0.1663314	a . </s>
-0.5131189	a . m	0.4771214
-0.01021917	b . </s>
-0.003460532	c . </s>
-0.01523997	d . </s>
-0.1853319	e . </s>
-0.4725736	e . g	0
-0.01223446	f . </s>
-0.002964479	g . </s>
-0.02020339	h . </s>
-1.62067	i . d	-0.7000309
-0.02928938	i . e	0
-0.4350339	k . </s>
-0.01296498	l . </s>
-0.02482358	m . </s>
-1.400033	m . p	0.1529226
-0.004196114	n . </s>
-0.00357446	o . </s>
-0.2814344	p . </s>
-1.413606	p . h	-0.01626581
-0.3735807	p . m	0.1760913
-0.04575749	q . </s>
-2.969632	r . '	0.623072
-0.001895658	r . </s>
-2.969632	r . p	0.2550952
-0.0006999107	s . </s>
-2.35217	t . -	-0.5994101
-0.004729206	t . </s>
-0.1447605	u . </s>
-1.878173	v . /	-0.5763866
-0.009441556	v . </s>
-0.2107205	w . </s>
-0.05799195	x . </s>
-0.05799195	y . </s>
-0.03778856	z . </s>
-0.6086605	. / m	-0.5994101
-0.243038	0 / 7	-0.3527471
-0.7547885	0 / m	-0.222026
-1.957913	1 / 1	-0.1584385
-0.2146702	1 / 2	-0.1552413
-1.957913	1 / 3	0.07842374
-0.69897	1 / 4	0.161368
-1.045758	1 / 8	-0.7485843
-1.90969	1 / c	-0.6247716
-0.5117505	2 / 3	-0.2896797
-0.5740313	3 / 1	-0.3113545
-0.3309932	3 / 4	0.7732364
-1.134004	3 / 8	-0.7354509
-0.3868117	4 / m	-0.222026
-0.7547885	7 / 2	-0.1939973
-0.8030106	7 / 8	-0.8678162
-0.06069784	<s> / </s>
-1.271418	<s> / l	-0.5644487
-0.4350339	D / d	-0.1998312
-0.3868117	b / </s>
-0.4350339	c / s	-0.7588754
-0.02482358	d / o	0
-0.03218468	g / l	0.2082253
-0.6086605	l / </s>
-0.6568826	l / h	-0.7588754
-0.6568826	r / u	-0.7000309
-0.09691001	t / O	-0.3527471
-0.9579126	* 0 </s>
-0.2996625	* 0 C	0.07730848
-0.01203664	, 0 0	-2.464486
-2.552155	, 0 1
-2.552155	, 0 6
-2.011697	, 0 8	-0.1479837
-0.6878417	- 0 5	-0.1348758
-0.1760913	- 0 </s>
-0.4181434	. 0 0	-0.5803703
-1.698275	. 0 2	-0.3107752
-0.8952646	. 0 3	0.1926901
-0.8372727	. 0 7	0.1099311
-1.698275	. 0 9	0.2332276
-0.7861202	. 0 </s>
-2.253762	0 0 %	0.8310873
-2.456514	0 0 '	0.2631381
-1.135663	0 0 ,	-0.7734047
-1.58865	0 0 -	-0.08987758
-3.066542	0 0 .
-0.4959864	0 0 0	-2.191597
-2.554792	0 0 1	-0.5008097
-3.066542	0 0 2
-3.066542	0 0 5	-0.1348758
-0.2499784	0 0 </s>
-1.862472	1 0 %	0.8822398
-2.665483	1 0 '	-0.867767
-1.230449	1 0 ,	0.07644153
-1.230449	1 0 -	-0.2792574
-1.50345	1 0 .	-0.006535292
-0.5645553	1 0 0	-0.2871917
-2.10551	1 0 1	0.3290292
-2.076802	1 0 2	-0.1472433
-1.30963	1 0 4	-0.6632546
-1.593627	1 0 5	-0.2275032
-1.80448	1 0 6	-0.0693197
-2.007233	1 0 8	-0.3084044
-2.10551	1 0 9	-0.3754333
-2.007233	1 0 :	-0.1016146
-0.3832877	1 0 </s>
-1.856371	2 0 %	1.100099
-1.532896	2 0 '	0.06445801
-1.283018	2 0 ,	0.04366446
-1.164919	2 0 -	-0.1247925
-0.6420403	2 0 0	0.1793653
-1.64204	2 0 3	-0.154902
-2.396829	2 0 5
-0.3110471	2 0 </s>
-1.856371	2 0 s	0.6369886
-1.283018	2 0 t	0.2466723
-1.833125	3 0 %	1.100099
-1.560803	3 0 '	0.161368
-1.34995	3 0 ,	0.1016564
-1.317765	3 0 -	-0.2919289
-1.618795	3 0 .	-0.8220568
-2.373584	3 0 /	-0.6151388
-0.7563228	3 0 0	-0.7920986
-2.373584	3 0 7	-0.291662
-0.213473	3 0 </s>
-1.861833	3 0 s	0.2705021
-1.833125	3 0 t	0.7918906
-1.414973	4 0 %	0.8822398
-1.658011	4 0 '	0.01274085
-0.9813178	4 0 ,	0.2700609
-1.218679	4 0 -	-0.1986782
-0.6368221	4 0 0	-0.326299
-2.169762	4 0 7	-0.291662
-0.3255729	4 0 </s>
-1.658011	4 0 A	-0.3527471
-1.296178	5 0 %	0.5065762
-1.597208	5 0 '	0.1102155
-1.209027	5 0 ,	-0.09463823
-1.321001	5 0 -	-0.1367769
-0.5924086	5 0 0	-0.1098711
-2.46114	5 0 3
-2.46114	5 0 5
-0.2819371	5 0 </s>
-2.509363	5 0 s	0.423418
-1.94939	5 0 t	0.4254041
-1.547775	6 0 '	0.02306533
-1.644685	6 0 ,	0.3446945
-1.371683	6 0 -	-0.2984591
-1.016296	6 0 0	-0.2484106
-2.505687	6 0 1	-0.3478937
-1.945715	6 0 2	-0.1773477
-2.505687	6 0 5	-0.3345298
-1.945715	6 0 7	-0.05509812
-2.505687	6 0 8	-0.4058857
-1.945715	6 0 9	-0.4874457
-0.136155	6 0 </s>
-2.457465	6 0 s	0.623072
-2.068502	7 0 %	0.8865286
-2.068502	7 0 '	0.1656568
-1.156347	7 0 ,	0.293542
-1.50853	7 0 -	-0.1197357
-1.50853	7 0 /	-0.6837404
-0.768167	7 0 0	-0.5238907
-2.068502	7 0 1	0.2198636
-2.02028	7 0 2
-0.8318361	7 0 7	-0.4300556
-0.3781959	7 0 </s>
-1.988872	8 0 %	1.086183
-1.988872	8 0 '	0.3653107
-1.448413	8 0 ,	0.4785662
-1.176091	8 0 -	-0.07026839
-0.5477023	8 0 0	-0.7182664
-1.477121	8 0 1	-0.5008097
-1.477121	8 0 3	0.2856046
-1.988872	8 0 7
-0.3802112	8 0 </s>
-1.988872	8 0 s	0.623072
-1.473487	9 0 %	0.7336127
-1.473487	9 0 '	0.01274085
-1.985237	9 0 ,	0.5486372
-1.121304	9 0 -	-0.8521
-0.5984257	9 0 0	-0.9233961
-1.444779	9 0 1	-0.1343232
-2.03346	9 0 2	-0.6135654
-2.03346	9 0 3	-0.1506132
-2.03346	9 0 4	-0.6200476
-1.375209	9 0 5	-0.2370484
-1.473487	9 0 6	-0.7964447
-1.473487	9 0 7	-0.6442319
-1.172457	9 0 8	-0.461327
-1.375209	9 0 9	0.09407419
-0.6605736	9 0 </s>
-1.985237	9 0 s	0.623072
-0.39794	: 0 0	-1.242493
-0.9017225	: 0 1	-0.09406447
-1	: 0 2	-0.3929475
-1.559973	: 0 4	-0.3167404
-0.9017225	: 0 5	-0.2927049
-1.559973	: 0 6	-0.3107752
-0.1718125	<s> 0 .	-0.1296792
-1.962234	<s> 0 5	-0.3345298
-1.402261	<s> 0 6	-0.6599015
-1.914012	<s> 0 8	-0.2062318
-0.6618987	<s> 0 </s>
-0.7876965	$ 1 ,	-0.09509754
-0.9860642	$ 1 .	-0.116605
-0.6313494	$ 1 0	-0.5955333
-1.41972	$ 1 1	0.1988815
-1.11869	$ 1 2	-0.4219319
-1.56448	$ 1 3	-0.3721966
-1.361728	$ 1 4	0.148412
-0.9860642	$ 1 5	-0.1842151
-1.63405	$ 1 6	-0.1586485
-1.264818	$ 1 7	-0.4222718
-1.361728	$ 1 8	-0.240708
-1.11869	$ 1 </s>
-0.2107205	' 1 3	-0.3234837
-0.6568826	( 1 )	-0.7000309
-0.3590219	, 1 0	-0.2251523
-1.11381	, 1 1
-1.162033	, 1 7
-0.5473212	- 1 /	-0.7124598
-1.426767	- 1 0	-0.6609983
-1.496337	- 1 1	-0.3401839
-1.525045	- 1 2	-0.6741529
-1.426767	- 1 3	-0.1202348
-1.525045	- 1 4	-0.6215925
-2.036795	- 1 5	-0.3448718
-2.085017	- 1 6
-1.496337	- 1 7	-0.3815189
-1.013161	- 1 8	-0.1341358
-0.7468936	- 1 9	-0.05313405
-0.7468936	- 1 </s>
-1.735765	. 1 %	0.2039427
-1.735765	. 1 -
-0.8718323	. 1 0	-0.2616896
-1.735765	. 1 2	-0.321583
-0.9809768	. 1 5	-0.2012224
-1.783987	. 1 6	-0.699046
-1.735765	. 1 9
-0.2578731	. 1 </s>
-0.08715018	/ 1 6	-0.4467223
-0.90309	0 1 .	-0.3656734
-0.1434221	0 1 </s>
-2.129799	1 1 %	0.2039427
-1.618048	1 1 ,
-1.106165	1 1 -	-0.06121378
-2.178021	1 1 .
-0.9648356	1 1 0	-1.354059
-1.37501	1 1 1	-0.5580432
-2.178021	1 1 3	-0.5231376
-1.618048	1 1 4	-0.6215925
-2.178021	1 1 5
-2.178021	1 1 6
-2.129799	1 1 8
-1.317018	1 1 :	-0.4146189
-0.2610667	1 1 </s>
-2.178021	1 1 t	-0.7000309
-1.970388	2 1 ,
-1.106455	2 1 -	-0.3656946
-1.2156	2 1 0	-0.4760612
-1.36036	2 1 1	-0.06109628
-1.970388	2 1 2
-1.42993	2 1 3	0.0530372
-1.458638	2 1 4	-0.03245872
-1.970388	2 1 5	-0.3448718
-0.2155998	2 1 </s>
-2.01861	2 1 s	0.1011988
-1.809171	3 1 0	-0.09914489
-0.0953835	3 1 </s>
-1.760949	3 1 s	0.3008527
-1.543159	4 1 ,
-1.543159	4 1 0
-1.591381	4 1 2
-1.543159	4 1 8
-0.2021047	4 1 </s>
-1.101626	5 1 2	-0.3076664
-1.130334	5 1 4	-0.03245872
-1.642084	5 1 5
-1.642084	5 1 7
-0.2009148	5 1 </s>
-1.642084	5 1 s	0.3008527
-2.174508	6 1 '	-0.5763866
-2.174508	6 1 ,	-0.4669401
-2.174508	6 1 -	-0.6898467
-1.662758	6 1 0	-0.8198182
-2.22273	6 1 1	-0.5537544
-2.174508	6 1 2
-2.22273	6 1 3	-0.5231376
-2.174508	6 1 5	-0.3448718
-0.0634207	6 1 </s>
-1.324664	7 1 4	-0.2690226
-0.09275405	7 1 </s>
-0.7720771	8 1 (	-0.4148954
-1.760949	8 1 ,	-0.4669401
-1.220491	8 1 0	-0.4533317
-1.760949	8 1 1
-1.249198	8 1 2	-0.6741529
-1.760949	8 1 3	-0.3234837
-1.760949	8 1 4	-0.2690226
-1.150921	8 1 5	-0.4470444
-1.760949	8 1 6	-0.4993921
-1.220491	8 1 7	-0.4997489
-1.249198	8 1 8	-0.968075
-1.00616	8 1 9	-0.8882123
-0.6208094	8 1 </s>
-0.7659168	9 1 0	-0.7223436
-1.390422	9 1 1	-0.2219539
-0.8170693	9 1 2	-0.8528847
-0.9420081	9 1 3	-0.7382797
-1.066947	9 1 4	-0.5241178
-1.390422	9 1 5	-0.3309551
-1.390422	9 1 6	-0.4854755
-0.9797966	9 1 7	-0.8559109
-1.320852	9 1 8	-0.3865551
-1.320852	9 1 9	-0.7864422
-0.9420081	9 1 </s>
-3.499528	<s> 1 %	0.2039427
-3.54775	<s> 1 '	-0.7906997
-1.873835	<s> 1 ,	0.100531
-2.22811	<s> 1 -	-0.1976907
-1.987778	<s> 1 .	-0.7211505
-1.804508	<s> 1 /	-0.26445
-1.004377	<s> 1 0	0.008844495
-1.492928	<s> 1 1	-0.2454773
-1.349289	<s> 1 2	-0.1683877
-1.630797	<s> 1 3	-0.0624125
-1.598612	<s> 1 4	-0.2178272
-1.269692	<s> 1 5	0.1964599
-1.37765	<s> 1 6	-0.1761807
-1.422521	<s> 1 7	-0.2092251
-1.020464	<s> 1 8	-0.444611
-0.4409269	<s> 1 9	-0.04282308
-2.74474	<s> 1 :	-0.07910411
-0.8680273	<s> 1 </s>
-0.7212464	$ 2 ,	-0.2200674
-1.154902	$ 2 .	-0.199736
-0.5850267	$ 2 0	-0.8022617
-1.39794	$ 2 2
-1.957913	$ 2 3	-0.3123617
-1.90969	$ 2 4
-0.79588	$ 2 5	0.141466
-1.90969	$ 2 6
-1.90969	$ 2 7
-1.299662	$ 2 8	-0.01728275
-1.39794	$ 2 9	0.3152409
-1.09691	$ 2 </s>
-0.3868117	' 2 0
-0.7403627	, 2 0	-0.9393271
-1.252113	, 2 1	-0.6944728
-1.252113	, 2 2
-0.7116549	, 2 5	-0.2660884
-1.252113	, 2 7
-0.7403627	, 2 8	-0.1699605
-0.8791778	- 2 -	-0.5308753
-0.6828832	- 2 0	-0.3076115
-1.093508	- 2 1	-0.3267646
-1.122216	- 2 2	-0.05072889
-1.633966	- 2 5	-0.3201577
-1.682189	- 2 7
-1.633966	- 2 9	-0.1620281
-0.5781478	- 2 </s>
-1.642084	. 2 1
-1.642084	. 2 3
-1.690306	. 2 4	-0.4555382
-0.8872957	. 2 5	0.06377822
-1.642084	. 2 6	-0.2333071
-1.642084	. 2 8	-0.3102869
-0.2272438	. 2 </s>
-0.8519375	/ 2 '	-0.2798407
-0.90309	/ 2 -	-0.3829988
-0.1627273	/ 2 </s>
-0.8293038	0 2 .	-0.59786
-1.341054	0 2 0	-0.4079086
-1.341054	0 2 7	-0.264778
-0.3174204	0 2 </s>
-2.317748	1 2 %	0.3316478
-1.659498	1 2 '	0.249962
-1.405593	1 2 ,	-0.210453
-1.155715	1 2 -	-0.1465104
-1.659498	1 2 .	-0.007315367
-1.280654	1 2 0	-0.1563931
-1.514737	1 2 1	0.04954055
-1.729068	1 2 2	0.02194339
-2.269526	1 2 3
-2.317748	1 2 4	-0.4555382
-1.456746	1 2 5	-0.05456552
-1.757776	1 2 6	0.003256798
-2.269526	1 2 7
-1.757776	1 2 8	-0.6628568
-2.317748	1 2 9
-1.757776	1 2 :	-0.3534389
-0.2359838	1 2 </s>
-1.344985	2 2 ,	0.08515549
-1.142233	2 2 -	-0.244454
-1.200225	2 2 0	-0.625912
-1.955014	2 2 1
-1.955014	2 2 3
-2.003236	2 2 5
-1.955014	2 2 7
-1.955014	2 2 8
-2.003236	2 2 9	-0.361682
-0.2128141	2 2 </s>
-2.003236	2 2 n	0.1425915
-1.168573	3 2 ,	-0.3471305
-1.757253	3 2 -	-0.3101551
-1.757253	3 2 .	-0.267762
-1.757253	3 2 0	-0.03980514
-1.709031	3 2 1	-0.6797799
-1.168573	3 2 5	0.0563632
-0.2552725	3 2 </s>
-1.648109	4 2 ,
-1.648109	4 2 -	-0.2804875
-1.088136	4 2 0	-0.1713447
-0.1716821	4 2 </s>
-1.783987	5 2 -	-0.2584932
-1.783987	5 2 0	-0.03980514
-1.735765	5 2 4	-0.2558843
-1.735765	5 2 5
-0.1185046	5 2 </s>
-1.809171	6 2 -
-1.809171	6 2 2	0.08081067
-1.760949	6 2 4	-0.2558843
-1.150921	6 2 5	-0.09120765
-1.760949	6 2 8
-1.249198	6 2 9	-0.514598
-0.1610623	6 2 </s>
-1.441169	7 2 ,
-1.441169	7 2 0	-0.4079086
-1.441169	7 2 1	-0.291662
-1.441169	7 2 8
-0.2527253	7 2 </s>
-1.489392	7 2 n	0.1425915
-1.526114	8 2 0	-0.6075625
-0.8678643	8 2 1	-0.06271195
-1.477892	8 2 2	-0.2872927
-1.526114	8 2 3	-0.4525565
-0.8678643	8 2 5	-0.02715349
-1.526114	8 2 7	-0.4644319
-0.4890205	8 2 </s>
-0.7403627	9 2 0	-1.500267
-1.217484	9 2 1	-0.5467572
-1.217484	9 2 2	-0.542388
-1.120574	9 2 3	-0.07663402
-1.166331	9 2 4	-0.556737
-1.166331	9 2 5	-0.6210104
-1.275476	9 2 6	-0.08965766
-0.8418204	9 2 7	-0.8666608
-1.420236	9 2 8	-0.08133692
-1.217484	9 2 9	-0.4171233
-0.7781513	9 2 </s>
-0.455932	: 2 0	-0.6118513
-1.21072	: 2 1
-1.21072	: 2 2	-0.2872927
-1.258943	: 2 5	-0.5198116
-1.258943	: 2 6	0.1347964
-1.21072	: 2 8	-0.6721883
-2.217484	<s> 2 %	0.230449
-3.129639	<s> 2 '
-1.773786	<s> 2 ,	-0.1098037
-1.591943	<s> 2 -	-0.2439719
-1.603525	<s> 2 .	0.01864028
-3.129639	<s> 2 /
-0.8816918	<s> 2 0	-0.3304209
-1.290913	<s> 2 1	-0.1686959
-1.279632	<s> 2 2	-0.1590138
-1.326628	<s> 2 3	-0.1768858
-1.247447	<s> 2 4	-0.0963223
-1.035006	<s> 2 5	-0.2949007
-1.464156	<s> 2 6	-0.1611223
-1.48153	<s> 2 7	-0.03234351
-1.591943	<s> 2 8	-0.09361333
-1.640248	<s> 2 9	-0.2073894
-1.154693	<s> 2 :	-0.1816496
-0.5223916	<s> 2 </s>
-2.569666	<s> 2 d	-0.2140763
-3.129639	<s> 2 n	0.1425915
-0.8016323	$ 3 ,	0.08458668
-0.8527849	$ 3 .	-0.1912866
-0.5254259	$ 3 0	-0.2124922
-1.713787	$ 3 1	-0.3242517
-1.713787	$ 3 2	-0.3005386
-1.153815	$ 3 5	-0.1463775
-1.153815	$ 3 7	-0.08516508
-1.713787	$ 3 9
-1.713787	$ 3 </s>
-0.5117505	' 3 0	-0.6931362
-1.213185	, 3 0	-0.8151194
-1.213185	, 3 2
-1.213185	, 3 3	-0.2922433
-1.164963	, 3 5
-1.164963	, 3 6
-1.164963	, 3 9
-1.465993	- 3 -
-0.855965	- 3 /	-0.5283186
-0.855965	- 3 0	-0.05938274
-1.465993	- 3 4	-0.2018226
-1.465993	- 3 6
-1.465993	- 3 9	-0.3633552
-0.4423591	- 3 </s>
-0.6910011	. 3 -	-0.3790368
-1.690306	. 3 0	-0.3292026
-1.642084	. 3 2
-1.642084	. 3 6	-0.3175977
-0.2138798	. 3 </s>
-0.2143302	/ 3 </s>
-0.0854302	0 3 </s>
-2.033542	1 3 ,
-1.493084	1 3 -	-0.2134819
-1.493084	1 3 .	-0.1887328
-2.033542	1 3 /	-0.5644487
-1.169609	1 3 0	0.0529547
-2.033542	1 3 1
-1.493084	1 3 3	-0.2650143
-1.123852	1 3 5	-0.5950739
-1.521792	1 3 7	-0.6742988
-2.081764	1 3 9
-0.2373609	1 3 </s>
-1.423514	1 3 t	-0.01626581
-1.375664	2 3 ,	-0.09097236
-1.375664	2 3 -	-0.1795408
-1.074634	2 3 0	-0.4922755
-1.887414	2 3 5	-0.2942212
-1.887414	2 3 9	-0.3633552
-1.887414	2 3 :	-0.3311705
-0.1923938	2 3 </s>
-1.346956	2 3 d	0.2178593
-1.935636	2 3 r	0.1011988
-1.656883	3 3 -	-0.2218994
-1.656883	3 3 .	-0.2841448
-1.068202	3 3 0	0.08818811
-1.656883	3 3 2	-0.5466187
-1.60866	3 3 7	-0.6391494
-0.2076083	3 3 </s>
-1	4 3 *	-0.3527471
-1.51175	4 3 .
-0.139662	4 3 </s>
-1.625694	5 3 8	-0.3838768
-0.04390549	5 3 </s>
-1.591381	6 3 -
-1.031408	6 3 2	-0.6995347
-1.591381	6 3 7	0.04637447
-1.543159	6 3 8
-1.591381	6 3 9	0.004748225
-0.3324385	6 3 </s>
-1.21072	7 3 0	-0.2883328
-1.21072	7 3 1	0.005982995
-1.21072	7 3 8	-0.3838768
-0.30103	7 3 </s>
-1.041393	8 3 ,	-0.09097236
-1.553143	8 3 1	0.005982995
-0.7983546	8 3 2	-0.5509075
-1.553143	8 3 3	-0.2789309
-1.012685	8 3 4	-0.187906
-1.041393	8 3 5	-0.646791
-1.553143	8 3 7	-0.3217289
-0.5295093	8 3 </s>
-0.7403627	9 3 0	-1.239576
-1.138303	9 3 1	-0.2491122
-1.410625	9 3 2	0.0295561
-1.08715	9 3 3	-0.5797836
-1.196295	9 3 4	-0.4057654
-1	9 3 5	-0.6364666
-1.341055	9 3 6	-0.4197703
-1.041393	9 3 7	-0.6639743
-0.9622114	9 3 8	-1.118853
-1.196295	9 3 9	-0.5672979
-0.8653014	9 3 </s>
-0.4423591	: 3 0	-0.9589905
-1.943114	: 3 1
-1.402656	: 3 2	-0.4380622
-1.188326	: 3 3	-0.5333518
-1.033424	: 3 4	-0.04415125
-0.8872957	: 3 5	-1.113194
-0.7323937	: 3 6	-1.323067
-1.130334	: 3 7	-0.5256717
-1.991336	: 3 8	-0.5835308
-2.878036	<s> 3 %	-0.06116039
-2.829814	<s> 3 '
-1.664851	<s> 3 ,	-0.4665523
-1.539912	<s> 3 -	-0.03728294
-1.457725	<s> 3 .	-0.1801641
-2.075025	<s> 3 /	-0.2207452
-0.6795741	<s> 3 0	-0.4200935
-1.266911	<s> 3 1	-0.1757255
-1.48876	<s> 3 2	-0.05855685
-1.619093	<s> 3 3	-0.106318
-1.376055	<s> 3 4	-0.1031491
-1.276671	<s> 3 5	-0.2028216
-1.443002	<s> 3 6	0.05702084
-1.48876	<s> 3 7	0.2169285
-1.388644	<s> 3 8	0.005329907
-1.744032	<s> 3 9	0.04625615
-2.289356	<s> 3 :	0.2004648
-0.4622414	<s> 3 </s>
-2.289356	<s> 3 r	0.3147693
-0.6690068	$ 4 ,	-0.1057667
-1.53294	$ 4 .	-0.6835955
-0.6690068	$ 4 0	-0.1827979
-1.53294	$ 4 3
-0.6232493	$ 4 5	0.09154063
-0.9924815	$ 4 </s>
-0.7360638	' 4 8	-0.1767659
-0.6878417	' 4 9	-0.1172907
-0.6462637	, 4 0	-0.7891467
-0.7910242	, 4 1	-0.1220988
-1.401052	, 4 2
-1.449274	, 4 4
-0.8893017	, 4 5	-0.9574472
-1.449274	, 4 6	-0.3204313
-1.449274	, 4 8
-1.401052	, 4 9
-1.252113	- 4 0
-0.7116549	- 4 4	-0.645601
-1.252113	- 4 7
-0.4393327	- 4 </s>
-1.307631	. 4 6	-0.07075834
-0.09691001	. 4 </s>
-0.2863067	/ 4 '	0.1180992
-0.3484547	/ 4 </s>
-1.489474	0 4 .	-0.5700526
-0.4658403	0 4 0	-1.267317
-0.3245111	0 4 </s>
-2.104041	1 4 %	0.004288793
-2.055819	1 4 ,
-1.104735	1 4 -	-0.4515672
-1.445791	1 4 .	-0.2139205
-1.243038	1 4 0	-0.08939871
-2.055819	1 4 1
-1.51536	1 4 5	-0.160942
-2.055819	1 4 7
-2.104041	1 4 9	0.2508127
-0.2016454	1 4 </s>
-1.544068	1 4 t	0.2705021
-1.955014	2 4 %	0.2039427
-1.955014	2 4 '	0.623072
-1.955014	2 4 ,
-0.841203	2 4 -	-0.439732
-1.414555	2 4 0	-0.1131238
-2.003236	2 4 7	-0.2869814
-0.1940646	2 4 </s>
-1.200225	2 4 t	0.4191293
-1.729234	3 4 ,
-1.729234	3 4 -
-1.217484	3 4 .	-0.1547032
-1.777457	3 4 0	-0.3039686
-1.729234	3 4 3	-0.13848
-1.729234	3 4 6	-0.07075834
-1.217484	3 4 8	-0.3296819
-0.1663314	3 4 </s>
-1.599887	4 4 ,	-0.5352905
-1.648109	4 4 -	-0.8530437
-1.059428	4 4 0	-0.5712873
-1.648109	4 4 7	0.2807759
-0.1988344	4 4 </s>
-1.81278	5 4 -	-0.586443
-1.30103	5 4 0	-0.1847833
-1.81278	5 4 1
-1.81278	5 4 3	-0.13848
-0.09691001	5 4 </s>
-1.463063	6 4 '	0.423418
-0.90309	6 4 -
-1.41484	6 4 2	-0.2130712
-0.90309	6 4 3	-0.4910499
-1.41484	6 4 6	-0.07075834
-0.3912066	6 4 </s>
-1.356848	7 4 0
-1.356848	7 4 2
-1.356848	7 4 8
-0.243038	7 4 </s>
-1.51175	8 4 ,
-0.69897	8 4 0	-0.4438471
-1.51175	8 4 1
-1.51175	8 4 2
-0.9712922	8 4 4	-0.2503071
-0.9712922	8 4 5	-0.3028957
-1.559973	8 4 7	-0.2869814
-1.559973	8 4 8	-0.1767659
-1.51175	8 4 9	-0.1172907
-0.9712922	8 4 </s>
-2.145219	9 4 -
-0.980256	9 4 0	-0.5003511
-1.194136	9 4 1	-0.6498327
-1.194136	9 4 2	-0.5931051
-1.156347	9 4 3	-0.5532761
-1.031408	9 4 4	-0.7955254
-0.980256	9 4 5	-0.8964187
-0.9133092	9 4 6	-0.6938303
-1.059437	9 4 7	-0.5642715
-0.8931057	9 4 8	-0.6396925
-0.9133092	9 4 9	-0.7605661
-1.604761	9 4 </s>
-1.071856	: 4 0	-0.6210011
-0.4831755	: 4 5	-0.3028957
-1.023634	: 4 8	0.022888
-1.606216	<s> 4 ,	0.02660772
-1.288796	<s> 4 -	-0.09568527
-1.441406	<s> 4 .	0.0227102
-0.7611179	<s> 4 0	-0.6525105
-1.48971	<s> 4 1	-0.2855493
-1.339948	<s> 4 2	-0.2868649
-1.640978	<s> 4 3	0.3199716
-1.678767	<s> 4 4	0.06905237
-1.243038	<s> 4 5	0.2530149
-1.516039	<s> 4 6	0.2036613
-1.606216	<s> 4 7	-0.4956915
-1.544068	<s> 4 8	-0.09534299
-1.678767	<s> 4 9	0.4636417
-1.765917	<s> 4 :	-0.4115846
-0.4062921	<s> 4 </s>
-1.817069	<s> 4 t	0.3679767
-0.8310874	$ 5 ,	0.02802873
-1.69502	$ 5 .
-0.3082086	$ 5 0	-1.103227
-1.69502	$ 5 3	-0.6887413
-1.69502	$ 5 5
-1.18327	$ 5 8	-0.2182382
-0.9402318	$ 5 </s>
-0.5740313	' 5 0	-0.1415824
-1.134004	' 5 2	-0.2768464
-1.085782	' 5 5	0.05185169
-1.134004	' 5 8	-0.07925725
-0.146128	, 5 0	-1.172826
-1.146128	, 5 1	-0.2118622
-1.706101	, 5 2	-0.3229893
-1.657879	, 5 5
-1.657879	, 5 6
-1.706101	, 5 8
-0.4336556	- 5 2	0.07788676
-0.6766936	- 5 6	-0.2340832
-0.5006024	- 5 </s>
-1.844189	. 5 %	0.8323316
-1.844189	. 5 -
-0.6334684	. 5 0	-1.001218
-1.844189	. 5 1	-0.6633428
-1.844189	. 5 8	0.1203967
-0.2021047	. 5 </s>
-1.041393	0 5 -	-0.1113374
-1.601365	0 5 .
-0.1383027	0 5 </s>
-1.784206	1 5 %	0.8462482
-1.460731	1 5 ,	0.0737862
-1.511883	1 5 -	-0.05062108
-1.784206	1 5 .	-0.1030949
-1.092754	1 5 0	-0.2765762
-1.812913	1 5 1
-2.324664	1 5 3	0.3178861
-1.569875	1 5 4	0.3356215
-1.784206	1 5 5	0.583487
-1.784206	1 5 6	0.08857173
-1.714636	1 5 7	-0.3020496
-1.511883	1 5 8	0.5183887
-1.210853	1 5 9	-0.3415512
-0.2536053	1 5 </s>
-1.268845	1 5 t	0.1663314
-1.42529	2 5 %	0.5772364
-2.23807	2 5 '
-1.073107	2 5 ,	-0.2272438
-1.12426	2 5 -	-0.1843153
-2.23807	2 5 .
-0.9134063	2 5 0	-0.2487209
-2.286292	2 5 3	0.6859895
-2.23807	2 5 4
-2.286292	2 5 6	-0.1786419
-2.23807	2 5 8	0.1203967
-0.2349579	2 5 </s>
-2.286292	2 5 t	0.4436215
-1.93104	3 5 -
-1.371068	3 5 .	-0.9220833
-0.7970366	3 5 0	-0.2661506
-1.34236	3 5 3	0.3318027
-1.93104	3 5 4	-0.1998312
-1.93104	3 5 5	0.4199551
-0.217253	3 5 </s>
-0.9595714	4 5 -	-0.2616996
-0.7096938	4 5 0	-0.6909624
-1.823504	4 5 1
-1.823504	4 5 3	0.3178861
-0.2325726	4 5 </s>
-1.190332	5 5 ,	0.5654453
-1.702082	5 5 0	-0.3781462
-0.08482151	5 5 </s>
-1.657879	6 5 ,	0.3288814
-1.146128	6 5 -	-0.1113374
-1.657879	6 5 0	-0.3781462
-1.657879	6 5 7
-0.1147196	6 5 </s>
-1.295567	7 5 %	0.4797617
-1.19729	7 5 ,	0.2267088
-1.052529	7 5 -	-0.2088525
-0.8562344	7 5 0	-1.058321
-0.2541744	7 5 </s>
-1.224015	8 5 %	0.4797617
-1.783987	8 5 ,	0.1292275
-1.224015	8 5 -	-0.1113374
-1.125737	8 5 0	-0.5556203
-1.224015	8 5 1	-0.6203534
-1.735765	8 5 5	0.05185169
-1.735765	8 5 7	-0.02111119
-1.735765	8 5 8	0.1203967
-0.7846821	8 5 9	-0.3040777
-0.4281348	8 5 </s>
-2.602537	9 5 ,
-1.201485	9 5 0	-0.7615829
-1.370628	9 5 1	-0.8908555
-1.187697	9 5 2	-0.8831952
-1.261483	9 5 3	-0.4301246
-1.020749	9 5 4	-0.9822713
-1.230449	9 5 5	-0.7261223
-1.230449	9 5 6	-0.7569619
-0.9938769	9 5 7	-0.7199039
-0.7151233	9 5 8	-1.15818
-0.6634631	9 5 9	-1.14211
-1.370628	9 5 </s>
-0.6568826	: 5 0	-0.5778002
-1.93414	<s> 5 %	0.730159
-1.680235	<s> 5 ,	0.0737862
-1.187319	<s> 5 -	-0.1253507
-1.520534	<s> 5 .	-0.2761352
-2.59239	<s> 5 /
-0.5306736	<s> 5 0	-0.126415
-1.520534	<s> 5 1	0.2558974
-1.593085	<s> 5 2	0.2634605
-1.789379	<s> 5 3	0.6536848
-1.488349	<s> 5 4	0.5795404
-1.555296	<s> 5 5	0.01418972
-1.488349	<s> 5 6	0.616285
-1.488349	<s> 5 7	0.1339681
-1.634477	<s> 5 8	0.5242804
-2.00371	<s> 5 9	0.4146886
-2.544168	<s> 5 :
-0.4821889	<s> 5 </s>
-1.441169	$ 6 ,
-0.2304489	$ 6 0	-0.248985
-1.489392	$ 6 3
-0.9294189	$ 6 5	0.4123664
-0.6878417	' 6 0
-0.1760913	' 6 1	-0.1848394
-0.2107205	( 6 )	-0.5003769
-0.5118834	, 6 0	-0.4185994
-1.071856	, 6 1
-1.023634	, 6 2	-0.6923552
-1.071856	, 6 7
-0.73096	- 6 0	0.003050447
-1.271418	- 6 1	0.1677305
-1.271418	- 6 2	-0.1903116
-1.271418	- 6 6	-0.2405095
-0.4586379	- 6 </s>
-1.341054	. 6 %	0.2039427
-1.341054	. 6 -	-0.6903592
-1.341054	. 6 5	-0.0649026
-0.1526102	. 6 </s>
-0.4350339	/ 6 4	-0.883585
-1.341054	0 6 -	-0.6893154
-1.341054	0 6 .
-1.389276	0 6 0	0.2390073
-1.389276	0 6 5	-0.2645565
-1.341054	0 6 6	-0.2405095
-0.3521825	0 6 </s>
-1.665897	1 6 '	-0.2757631
-1.665897	1 6 ,	-0.1411626
-1.393575	1 6 -	-0.06179465
-1.694605	1 6 .
-0.8816918	1 6 0	0.4942498
-1.296665	1 6 1	-0.4857923
-1.017912	1 6 2	0.3690798
-1.255273	1 6 3	-0.2265032
-1.451567	1 6 4	-0.1457588
-1.596328	1 6 5	0.3848459
-1.694605	1 6 6	-0.197986
-2.254578	1 6 7
-1.596328	1 6 8	0.1819649
-1.665897	1 6 9	0.3676013
-0.4333423	1 6 </s>
-1.665897	1 6 t	0.593523
-1.278754	2 6 ,	0.3221897
-1.838726	2 6 -	-0.2982514
-1.838726	2 6 .
-1.180476	2 6 0	0.09985387
-1.838726	2 6 8
-1.790504	2 6 9	-0.1640341
-0.1818436	2 6 </s>
-1.790504	2 6 t	0.5796064
-1.210853	3 6 -
-1.770826	3 6 .	-0.815827
-1.112576	3 6 0	-0.291989
-1.722604	3 6 1	0.1677305
-1.722604	3 6 2	-0.1903116
-1.770826	3 6 8	-0.8807077
-1.722604	3 6 9	-0.1640341
-0.2331298	3 6 </s>
-1.617261	4 6 0	-0.1290962
-0.1165056	4 6 </s>
-1.617261	4 6 t	0.5796064
-1.709031	5 6 1
-1.197281	5 6 5	-0.4174725
-0.09177037	5 6 </s>
-1.271418	6 6 5
-0.1856366	6 6 </s>
-1.401052	7 6 4	-0.4727509
-1.401052	7 6 9
-0.1691424	7 6 </s>
-1.168792	8 6 0	0.1074677
-0.8166095	8 6 1	-0.1331222
-1.680542	8 6 2	-0.1903116
-1.728765	8 6 3	-0.6270606
-1.728765	8 6 4	-0.6724048
-0.8166095	8 6 5	-0.3199978
-1.680542	8 6 7	-0.4908713
-1.140084	8 6 8	-0.2538669
-1.680542	8 6 9	-0.1640341
-0.5404031	8 6 </s>
-0.3319066	9 6 0	-1.444107
-0.4645321	9 6 1	-0.9790261
-1.066592	9 6 2	-1.047467
-1.531479	9 6 3	-0.8074406
-2.568573	9 6 4	-0.6724048
-1.979892	9 6 5	-0.05098599
-2.0086	9 6 6	-0.5930793
-2.520351	9 6 7	-0.4908713
-1.40654	9 6 </s>
-2.488112	<s> 6 %	0.004288793
-2.43989	<s> 6 '
-1.829862	<s> 6 ,	0.07387078
-1.053078	<s> 6 -	-0.1214654
-1.62711	<s> 6 .	-0.1727024
-0.6163858	<s> 6 0	0.1244675
-1.575957	<s> 6 1	0.6414024
-1.92814	<s> 6 2	-0.1679986
-1.488807	<s> 6 3	0.07743554
-1.451018	<s> 6 4	0.008321136
-1.251446	<s> 6 5	0.04394436
-2.488112	<s> 6 6	0.127594
-1.829862	<s> 6 7	-0.1084769
-1.62711	<s> 6 8	-0.002191365
-1.5302	<s> 6 9	0.01223451
-1.92814	<s> 6 :	-0.06211837
-0.4732949	<s> 6 </s>
-1.829862	<s> 6 t	0.4774337
-0.9294189	$ 7 ,	-0.08237219
-0.9294189	$ 7 .	-0.1968681
-0.8311414	$ 7 0	-0.3249372
-1.441169	$ 7 4	-0.679619
-0.4900862	$ 7 5	0.04541892
-1.489392	$ 7 </s>
-0.4336556	, 7 0	-0.821884
-1.188444	, 7 3	-0.671555
-1.236666	, 7 4
-0.6766936	, 7 5	-0.1567601
-1.188444	- 7 /	-0.6247716
-0.4336556	- 7 0	-0.3199694
-1.236666	- 7 8	-0.8530437
-0.5784161	- 7 </s>
-0.7781513	. 7 5	-0.6981581
-0.1760913	. 7 </s>
-0.09691001	/ 7 0	-0.9825201
-1.572448	0 7 -
-0.8176598	0 7 0	-0.72018
-1.03199	0 7 4	-0.3172539
-1.572448	0 7 6	-0.2077856
-0.2155998	0 7 </s>
-1.571504	1 7 ,	-0.4211087
-2.181532	1 7 -	-0.5742086
-2.181532	1 7 .
-1.067722	1 7 0	0.04540974
-2.229754	1 7 1	-0.3099764
-1.271842	1 7 2	-0.1348631
-1.571504	1 7 3	-0.1071225
-1.641074	1 7 4
-1.641074	1 7 5
-2.229754	1 7 6	-0.3134443
-1.157898	1 7 7	-0.1608612
-0.9101138	1 7 8	-0.4608139
-1.067722	1 7 9	-0.4119159
-0.4589283	1 7 </s>
-1.271842	1 7 t	0.389971
-1.84921	2 7 ,	-0.318936
-1.308751	2 7 -	-0.1574272
-1.84921	2 7 .
-1.337459	2 7 0	0.01365016
-1.84921	2 7 1	0.01685607
-1.897432	2 7 3	-0.03001389
-1.094421	2 7 5	-0.2386925
-1.84921	2 7 8
-0.1991566	2 7 </s>
-1.161624	3 7 ,	0.2126993
-0.8893017	3 7 -	-0.3543739
-1.092054	3 7 5	-0.4483322
-0.2360892	3 7 </s>
-1.611125	4 7 ,	0.04916736
-1.562903	4 7 .
-1.611125	4 7 0	-0.09551542
-0.1217336	4 7 </s>
-1.277717	5 7 ,
-1.306425	5 7 7	0.004518092
-1.818176	5 7 9	-0.5742086
-0.102305	5 7 </s>
-1.23191	6 7 1	0.01685607
-1.23191	6 7 5	-0.3455882
-1.23191	6 7 7	-0.4727509
-0.4191293	6 7 </s>
-1.41484	7 7 ,
-1.463063	7 7 0	-0.09551542
-1.41484	7 7 1	0.01685607
